,embedding_0,embedding_1,embedding_2,embedding_3,embedding_4,embedding_5,embedding_6,embedding_7,embedding_8,embedding_9,embedding_10,embedding_11,embedding_12,embedding_13,embedding_14,embedding_15,embedding_16,embedding_17,embedding_18,embedding_19,embedding_20,embedding_21,embedding_22,embedding_23,embedding_24,embedding_25,embedding_26,embedding_27,embedding_28,embedding_29,embedding_30,embedding_31,embedding_32,embedding_33,embedding_34,embedding_35,embedding_36,embedding_37,embedding_38,embedding_39,embedding_40,embedding_41,embedding_42,embedding_43,embedding_44,embedding_45,embedding_46,embedding_47,embedding_48,embedding_49,embedding_50,embedding_51,embedding_52,embedding_53,embedding_54,embedding_55,embedding_56,embedding_57,embedding_58,embedding_59,embedding_60,embedding_61,embedding_62,embedding_63,embedding_64,embedding_65,embedding_66,embedding_67,embedding_68,embedding_69,embedding_70,embedding_71,embedding_72,embedding_73,embedding_74,embedding_75,embedding_76,embedding_77,embedding_78,embedding_79,embedding_80,embedding_81,embedding_82,embedding_83,embedding_84,embedding_85,embedding_86,embedding_87,embedding_88,embedding_89,embedding_90,embedding_91,embedding_92,embedding_93,embedding_94,embedding_95,embedding_96,embedding_97,embedding_98,embedding_99,embedding_100,embedding_101,embedding_102,embedding_103,embedding_104,embedding_105,embedding_106,embedding_107,embedding_108,embedding_109,embedding_110,embedding_111,embedding_112,embedding_113,embedding_114,embedding_115,embedding_116,embedding_117,embedding_118,embedding_119,embedding_120,embedding_121,embedding_122,embedding_123,embedding_124,embedding_125,embedding_126,embedding_127,embedding_128,embedding_129,embedding_130,embedding_131,embedding_132,embedding_133,embedding_134,embedding_135,embedding_136,embedding_137,embedding_138,embedding_139,embedding_140,embedding_141,embedding_142,embedding_143,embedding_144,embedding_145,embedding_146,embedding_147,embedding_148,embedding_149,embedding_150,embedding_151,embedding_152,embedding_153,embedding_154,embedding_155,embedding_156,embedding_157,embedding_158,embedding_159,embedding_160,embedding_161,embedding_162,embedding_163,embedding_164,embedding_165,embedding_166,embedding_167,embedding_168,embedding_169,embedding_170,embedding_171,embedding_172,embedding_173,embedding_174,embedding_175,embedding_176,embedding_177,embedding_178,embedding_179,embedding_180,embedding_181,embedding_182,embedding_183,embedding_184,embedding_185,embedding_186,embedding_187,embedding_188,embedding_189,embedding_190,embedding_191,embedding_192,embedding_193,embedding_194,embedding_195,embedding_196,embedding_197,embedding_198,embedding_199,embedding_200,embedding_201,embedding_202,embedding_203,embedding_204,embedding_205,embedding_206,embedding_207,embedding_208,embedding_209,embedding_210,embedding_211,embedding_212,embedding_213,embedding_214,embedding_215,embedding_216,embedding_217,embedding_218,embedding_219,embedding_220,embedding_221,embedding_222,embedding_223,embedding_224,embedding_225,embedding_226,embedding_227,embedding_228,embedding_229,embedding_230,embedding_231,embedding_232,embedding_233,embedding_234,embedding_235,embedding_236,embedding_237,embedding_238,embedding_239,embedding_240,embedding_241,embedding_242,embedding_243,embedding_244,embedding_245,embedding_246,embedding_247,embedding_248,embedding_249,embedding_250,embedding_251,embedding_252,embedding_253,embedding_254,embedding_255,embedding_256,embedding_257,embedding_258,embedding_259,embedding_260,embedding_261,embedding_262,embedding_263,embedding_264,embedding_265,embedding_266,embedding_267,embedding_268,embedding_269,embedding_270,embedding_271,embedding_272,embedding_273,embedding_274,embedding_275,embedding_276,embedding_277,embedding_278,embedding_279,embedding_280,embedding_281,embedding_282,embedding_283,embedding_284,embedding_285,embedding_286,embedding_287,embedding_288,embedding_289,embedding_290,embedding_291,embedding_292,embedding_293,embedding_294,embedding_295,embedding_296,embedding_297,embedding_298,embedding_299,embedding_300,embedding_301,embedding_302,embedding_303,embedding_304,embedding_305,embedding_306,embedding_307,embedding_308,embedding_309,embedding_310,embedding_311,embedding_312,embedding_313,embedding_314,embedding_315,embedding_316,embedding_317,embedding_318,embedding_319,embedding_320,embedding_321,embedding_322,embedding_323,embedding_324,embedding_325,embedding_326,embedding_327,embedding_328,embedding_329,embedding_330,embedding_331,embedding_332,embedding_333,embedding_334,embedding_335,embedding_336,embedding_337,embedding_338,embedding_339,embedding_340,embedding_341,embedding_342,embedding_343,embedding_344,embedding_345,embedding_346,embedding_347,embedding_348,embedding_349,embedding_350,embedding_351,embedding_352,embedding_353,embedding_354,embedding_355,embedding_356,embedding_357,embedding_358,embedding_359,embedding_360,embedding_361,embedding_362,embedding_363,embedding_364,embedding_365,embedding_366,embedding_367,embedding_368,embedding_369,embedding_370,embedding_371,embedding_372,embedding_373,embedding_374,embedding_375,embedding_376,embedding_377,embedding_378,embedding_379,embedding_380,embedding_381,embedding_382,embedding_383,embedding_384,embedding_385,embedding_386,embedding_387,embedding_388,embedding_389,embedding_390,embedding_391,embedding_392,embedding_393,embedding_394,embedding_395,embedding_396,embedding_397,embedding_398,embedding_399,embedding_400,embedding_401,embedding_402,embedding_403,embedding_404,embedding_405,embedding_406,embedding_407,embedding_408,embedding_409,embedding_410,embedding_411,embedding_412,embedding_413,embedding_414,embedding_415,embedding_416,embedding_417,embedding_418,embedding_419,embedding_420,embedding_421,embedding_422,embedding_423,embedding_424,embedding_425,embedding_426,embedding_427,embedding_428,embedding_429,embedding_430,embedding_431,embedding_432,embedding_433,embedding_434,embedding_435,embedding_436,embedding_437,embedding_438,embedding_439,embedding_440,embedding_441,embedding_442,embedding_443,embedding_444,embedding_445,embedding_446,embedding_447,embedding_448,embedding_449,embedding_450,embedding_451,embedding_452,embedding_453,embedding_454,embedding_455,embedding_456,embedding_457,embedding_458,embedding_459,embedding_460,embedding_461,embedding_462,embedding_463,embedding_464,embedding_465,embedding_466,embedding_467,embedding_468,embedding_469,embedding_470,embedding_471,embedding_472,embedding_473,embedding_474,embedding_475,embedding_476,embedding_477,embedding_478,embedding_479,embedding_480,embedding_481,embedding_482,embedding_483,embedding_484,embedding_485,embedding_486,embedding_487,embedding_488,embedding_489,embedding_490,embedding_491,embedding_492,embedding_493,embedding_494,embedding_495,embedding_496,embedding_497,embedding_498,embedding_499,embedding_500,embedding_501,embedding_502,embedding_503,embedding_504,embedding_505,embedding_506,embedding_507,embedding_508,embedding_509,embedding_510,embedding_511,embedding_512,embedding_513,embedding_514,embedding_515,embedding_516,embedding_517,embedding_518,embedding_519,embedding_520,embedding_521,embedding_522,embedding_523,embedding_524,embedding_525,embedding_526,embedding_527,embedding_528,embedding_529,embedding_530,embedding_531,embedding_532,embedding_533,embedding_534,embedding_535,embedding_536,embedding_537,embedding_538,embedding_539,embedding_540,embedding_541,embedding_542,embedding_543,embedding_544,embedding_545,embedding_546,embedding_547,embedding_548,embedding_549,embedding_550,embedding_551,embedding_552,embedding_553,embedding_554,embedding_555,embedding_556,embedding_557,embedding_558,embedding_559,embedding_560,embedding_561,embedding_562,embedding_563,embedding_564,embedding_565,embedding_566,embedding_567,embedding_568,embedding_569,embedding_570,embedding_571,embedding_572,embedding_573,embedding_574,embedding_575,embedding_576,embedding_577,embedding_578,embedding_579,embedding_580,embedding_581,embedding_582,embedding_583,embedding_584,embedding_585,embedding_586,embedding_587,embedding_588,embedding_589,embedding_590,embedding_591,embedding_592,embedding_593,embedding_594,embedding_595,embedding_596,embedding_597,embedding_598,embedding_599,embedding_600,embedding_601,embedding_602,embedding_603,embedding_604,embedding_605,embedding_606,embedding_607,embedding_608,embedding_609,embedding_610,embedding_611,embedding_612,embedding_613,embedding_614,embedding_615,embedding_616,embedding_617,embedding_618,embedding_619,embedding_620,embedding_621,embedding_622,embedding_623,embedding_624,embedding_625,embedding_626,embedding_627,embedding_628,embedding_629,embedding_630,embedding_631,embedding_632,embedding_633,embedding_634,embedding_635,embedding_636,embedding_637,embedding_638,embedding_639,embedding_640,embedding_641,embedding_642,embedding_643,embedding_644,embedding_645,embedding_646,embedding_647,embedding_648,embedding_649,embedding_650,embedding_651,embedding_652,embedding_653,embedding_654,embedding_655,embedding_656,embedding_657,embedding_658,embedding_659,embedding_660,embedding_661,embedding_662,embedding_663,embedding_664,embedding_665,embedding_666,embedding_667,embedding_668,embedding_669,embedding_670,embedding_671,embedding_672,embedding_673,embedding_674,embedding_675,embedding_676,embedding_677,embedding_678,embedding_679,embedding_680,embedding_681,embedding_682,embedding_683,embedding_684,embedding_685,embedding_686,embedding_687,embedding_688,embedding_689,embedding_690,embedding_691,embedding_692,embedding_693,embedding_694,embedding_695,embedding_696,embedding_697,embedding_698,embedding_699,embedding_700,embedding_701,embedding_702,embedding_703,embedding_704,embedding_705,embedding_706,embedding_707,embedding_708,embedding_709,embedding_710,embedding_711,embedding_712,embedding_713,embedding_714,embedding_715,embedding_716,embedding_717,embedding_718,embedding_719,embedding_720,embedding_721,embedding_722,embedding_723,embedding_724,embedding_725,embedding_726,embedding_727,embedding_728,embedding_729,embedding_730,embedding_731,embedding_732,embedding_733,embedding_734,embedding_735,embedding_736,embedding_737,embedding_738,embedding_739,embedding_740,embedding_741,embedding_742,embedding_743,embedding_744,embedding_745,embedding_746,embedding_747,embedding_748,embedding_749,embedding_750,embedding_751,embedding_752,embedding_753,embedding_754,embedding_755,embedding_756,embedding_757,embedding_758,embedding_759,embedding_760,embedding_761,embedding_762,embedding_763,embedding_764,embedding_765,embedding_766,embedding_767
SAMPLE_0000,-0.9262413382530212,2.590275526046753,-0.462140291929245,0.2681122422218323,0.07946638017892838,-0.40665560960769653,0.79908287525177,0.49461254477500916,-0.05122007429599762,0.25065845251083374,0.5390329360961914,-0.37617552280426025,1.226685643196106,0.5250201225280762,0.4843030869960785,2.2668347358703613,0.20734146237373352,0.34385403990745544,-0.37514007091522217,0.8817666172981262,0.3703214228153229,0.5197879076004028,0.8245407938957214,0.1517234444618225,0.3263973593711853,3.1727538108825684,0.17321814596652985,-0.4763237535953522,1.7250213623046875,0.09949006885290146,0.824583888053894,0.7987543940544128,0.907974362373352,0.5001385807991028,0.18408125638961792,0.7026928663253784,1.4643945693969727,1.499893307685852,0.42735350131988525,0.6601600646972656,-0.7191838622093201,0.23469698429107666,1.4016616344451904,1.1725404262542725,1.9354749917984009,1.0237616300582886,0.9490036368370056,-0.8252255320549011,1.9658459424972534,0.24932987987995148,2.4506990909576416,-0.2352251559495926,0.18930625915527344,-0.3053682744503021,0.7403178215026855,1.2167761325836182,1.558368444442749,1.3039617538452148,0.1161876991391182,0.6246436238288879,2.8690693378448486,2.9628212451934814,-1.403005599975586,2.635279417037964,1.4856054782867432,3.360187292098999,0.016405267640948296,0.4341709017753601,2.9348671436309814,0.5236451029777527,0.1723707765340805,1.9664216041564941,-0.9350647926330566,1.6128720045089722,1.6028687953948975,0.7421480417251587,1.4938308000564575,0.10124436020851135,1.2377328872680664,0.02517055906355381,-1.375017762184143,1.0513406991958618,0.15704688429832458,1.6913553476333618,2.072274684906006,1.693941354751587,-0.5661942362785339,0.24572904407978058,-0.16670438647270203,-0.1659812182188034,1.3869980573654175,-0.2231697142124176,1.9481780529022217,0.12699143588542938,0.2785811126232147,0.41612109541893005,1.3346890211105347,1.1697458028793335,1.7139196395874023,0.6212741732597351,-0.9672595858573914,0.7530843019485474,0.8798953294754028,1.1869512796401978,0.22065922617912292,0.17887963354587555,-0.5730357766151428,0.11837626993656158,2.3678512573242188,1.5759246349334717,0.864579439163208,1.3845806121826172,0.32276976108551025,1.8144915103912354,1.308817982673645,1.156322717666626,2.094120502471924,1.1970720291137695,2.5280258655548096,1.217192530632019,-0.5136390924453735,-0.43154945969581604,3.6099088191986084,1.525999665260315,1.5299932956695557,2.650994062423706,1.2751128673553467,2.061659812927246,0.5281099677085876,1.0086665153503418,-0.5920536518096924,-0.19567333161830902,0.2239692211151123,0.4596802592277527,-0.6184743642807007,-1.8352160453796387,1.1366313695907593,1.3827213048934937,0.7197463512420654,0.6463568210601807,0.43005648255348206,0.819287896156311,0.1601363569498062,0.9107324481010437,0.25656944513320923,1.2411669492721558,-0.6000692248344421,1.7082877159118652,-0.7431220412254333,0.0699535459280014,1.6596912145614624,-0.0852273553609848,2.1131367683410645,1.4439976215362549,1.847690463066101,1.9175139665603638,0.6788530945777893,0.07463325560092926,0.8244714736938477,3.5559632778167725,-0.4365794062614441,1.2025010585784912,-0.27462202310562134,1.9768164157867432,-1.0685111284255981,0.6754114031791687,-0.35258352756500244,0.49428069591522217,-0.09534674137830734,1.0725799798965454,0.24722984433174133,0.24517744779586792,-0.4345031976699829,3.7094779014587402,1.6185839176177979,-0.12637145817279816,1.7324554920196533,-0.751507580280304,0.11895274370908737,1.3700183629989624,-0.1932544708251953,1.2931514978408813,0.19139114022254944,0.8188750147819519,-0.8854251503944397,-0.9547304511070251,-1.2886852025985718,1.4763227701187134,1.8591517210006714,-0.8867515325546265,0.9925115704536438,1.3044781684875488,-0.07317916303873062,0.5460374355316162,-0.5492398738861084,0.22902189195156097,0.9582525491714478,1.7442797422409058,1.3488672971725464,1.2415778636932373,1.0847446918487549,-0.9201254844665527,-0.0012633147416636348,1.1169952154159546,2.1603991985321045,0.41888004541397095,-0.6223426461219788,1.0488210916519165,0.729919970035553,1.5514343976974487,-0.2689029574394226,1.2450571060180664,0.9152453541755676,0.598641574382782,-0.83956378698349,1.1103438138961792,2.2766056060791016,2.2952709197998047,-1.3384736776351929,-0.026523422449827194,1.3077945709228516,1.7259904146194458,1.6012539863586426,1.0754659175872803,2.0613811016082764,-0.600121021270752,-0.316506564617157,-0.47781142592430115,1.4552011489868164,1.0979441404342651,3.5278000831604004,0.1829305738210678,-0.10560661554336548,0.7864791750907898,-0.8106462955474854,0.17874875664710999,1.541858196258545,0.5052288174629211,1.8354085683822632,0.5255405902862549,0.8701675534248352,-0.303786963224411,0.9825323224067688,2.146458387374878,0.6177502870559692,-0.167434960603714,2.3620095252990723,2.034128427505493,0.8709519505500793,2.185526132583618,-0.04368039593100548,-0.10426492989063263,-1.2333464622497559,0.3572612702846527,1.0564607381820679,0.04608664661645889,2.944385290145874,0.5689448118209839,-1.1773520708084106,1.4801466464996338,2.461808919906616,0.5665567517280579,0.9185410141944885,1.6253114938735962,0.18933328986167908,0.8403809666633606,0.581947922706604,1.0887072086334229,1.3044434785842896,1.999221920967102,1.457602858543396,-0.39938315749168396,0.0495099313557148,2.376767873764038,-0.6046416163444519,-0.7732276916503906,-0.3260071873664856,3.014845371246338,0.9105360507965088,0.03030853345990181,-0.6771794557571411,0.9279630780220032,-0.017079219222068787,-0.07076756656169891,0.41151073575019836,-0.13019688427448273,0.3496488630771637,0.8237847089767456,-0.05558552220463753,1.4842320680618286,-0.26039913296699524,-1.5398770570755005,-0.5227934122085571,1.4595223665237427,1.2867460250854492,-1.5838568210601807,0.5674684047698975,0.6346272826194763,-0.6224724054336548,-0.1857430785894394,1.116654872894287,-0.030217494815587997,0.8226209878921509,1.444145917892456,0.9030713438987732,1.812354564666748,-0.48572733998298645,-2.231234550476074,-0.6370197534561157,3.756420612335205,1.874050498008728,-0.14223751425743103,0.8964408040046692,0.5282090902328491,1.0856178998947144,-0.035897146910429,0.8011981844902039,1.854860544204712,-0.04257470741868019,1.9679895639419556,1.1343700885772705,0.43645375967025757,-0.9228413105010986,2.3343992233276367,1.0718568563461304,1.3291723728179932,-0.23074887692928314,0.7153122425079346,-1.5434308052062988,-0.16470153629779816,1.0338318347930908,-1.4430361986160278,2.406946897506714,-0.7098026871681213,0.8531380891799927,0.23651482164859772,-0.024183986708521843,0.6645357608795166,1.6255199909210205,3.6132967472076416,-1.2759003639221191,0.5482435822486877,2.7459630966186523,1.6868878602981567,-2.3100407123565674,-1.5567065477371216,1.7624069452285767,-0.9436068534851074,1.9699138402938843,2.1543025970458984,0.5960311889648438,0.049243513494729996,1.6713157892227173,2.6804981231689453,2.904822826385498,-1.5874499082565308,1.729658603668213,2.9148151874542236,-0.8335162401199341,4.130214691162109,0.2919737696647644,-0.16612379252910614,1.0240870714187622,0.5565990805625916,-0.6016387343406677,2.3253724575042725,0.8443517088890076,2.366727828979492,0.5470158457756042,1.6034959554672241,1.5576131343841553,0.3033616840839386,2.5939764976501465,-0.6877110600471497,0.35426759719848633,1.7815380096435547,0.14347009360790253,-0.29374390840530396,-0.4164615571498871,0.6540483236312866,0.7805570363998413,-0.596779465675354,1.8025617599487305,2.0618607997894287,0.19412297010421753,-0.02113288827240467,0.9074496030807495,-0.23039007186889648,1.5673972368240356,1.328545093536377,2.203380584716797,-0.5997634530067444,2.6865956783294678,1.6113535165786743,2.3805229663848877,0.33671262860298157,0.15118642151355743,0.008774233050644398,0.7879778146743774,-0.6896462440490723,5.454115867614746,-1.4063527584075928,1.7526168823242188,0.024151356890797615,-0.0629080981016159,0.5917006731033325,1.497357964515686,0.6708477139472961,1.5220664739608765,-0.7344673275947571,-1.0677471160888672,-0.9209647178649902,-0.6286405324935913,1.614824891090393,0.8788456320762634,0.027773845940828323,0.26239264011383057,-0.5373355746269226,-0.29172998666763306,0.16382651031017303,1.4766522645950317,0.37544336915016174,-0.4400877356529236,1.0239027738571167,0.4235042631626129,0.2046205848455429,-0.0522586889564991,2.167936325073242,1.4959404468536377,0.2731090188026428,0.6549758911132812,-1.7017650604248047,-0.3971158266067505,-0.8316512703895569,0.38969719409942627,1.05436372756958,1.2390140295028687,-1.9024481773376465,2.2429254055023193,-1.2713382244110107,-0.2871541976928711,0.43928974866867065,-1.1880325078964233,-1.4883499145507812,1.8491744995117188,2.572338581085205,0.05819680541753769,-0.48623692989349365,0.5503382682800293,-0.23333413898944855,0.1881048083305359,0.8646808862686157,-0.38365429639816284,0.25396305322647095,1.5642399787902832,1.329965591430664,-0.4487892985343933,0.14693565666675568,-0.20364823937416077,-1.9695965051651,-0.49898266792297363,0.5574928522109985,2.5069100856781006,1.9041409492492676,-0.3661278486251831,3.6172664165496826,0.5009848475456238,0.8884384632110596,-0.14639389514923096,1.8853955268859863,-0.30056828260421753,2.3151679039001465,0.206148162484169,0.6161569356918335,2.103121042251587,-0.21539904177188873,0.8384159803390503,0.6231743693351746,3.0734987258911133,-0.4235316812992096,0.16969341039657593,-0.6398834586143494,2.300640344619751,-0.29546597599983215,1.3682247400283813,0.5268778800964355,1.084705114364624,0.6250284314155579,0.2913757562637329,1.0049901008605957,-0.3148902654647827,-0.6632238030433655,0.5643652081489563,0.10695082694292068,0.24377840757369995,-0.18389274179935455,-1.028647541999817,0.17775745689868927,-0.10892365872859955,1.5247540473937988,1.8132785558700562,0.942263662815094,0.46684351563453674,0.8404738306999207,0.9138505458831787,1.0500096082687378,0.04666020721197128,0.030241573229432106,-0.7985143661499023,-1.3651553392410278,0.37929466366767883,0.20942363142967224,-0.44276508688926697,0.7187685966491699,0.7900314331054688,0.8142411708831787,-1.5004554986953735,1.040520429611206,-0.30901116132736206,3.673952341079712,0.667198121547699,-0.608167290687561,0.9275534152984619,1.2854986190795898,0.5926021933555603,1.776718258857727,1.7811163663864136,0.6993862986564636,2.542789936065674,-1.8490537405014038,-1.284098744392395,0.7892310619354248,-0.11999047547578812,-0.44411176443099976,-1.5288572311401367,0.10671424865722656,-0.7789528369903564,0.4609033465385437,0.4284723103046417,0.5071420073509216,0.5561259984970093,-1.2398924827575684,-1.0419819355010986,-0.14781609177589417,-0.24293407797813416,-0.0477026142179966,2.248288869857788,-0.8615888953208923,-0.2143203169107437,-0.0616728812456131,-0.6371397376060486,1.9464040994644165,0.7048465013504028,0.03592957183718681,-0.3777582049369812,0.60024094581604,0.5151153206825256,-1.320273518562317,0.5523400902748108,0.9736910462379456,0.13427327573299408,1.255184292793274,-0.198057621717453,1.5837080478668213,0.7043099999427795,0.45966726541519165,0.639033317565918,1.9269518852233887,-0.6427759528160095,-1.044783115386963,-0.4476044774055481,-0.05675718933343887,-0.9008575081825256,0.010470620356500149,-1.0879805088043213,2.3165700435638428,0.8392164707183838,1.076621651649475,0.0814180001616478,2.723473072052002,1.4104808568954468,0.4632110893726349,2.602327823638916,1.0981580018997192,0.3518316149711609,0.7859338521957397,0.3732191026210785,0.18815924227237701,-0.23432117700576782,-0.2664831280708313,1.6092346906661987,1.3498187065124512,0.8035264015197754,1.210927963256836,-0.08839302510023117,0.19970056414604187,0.013828430324792862,2.8555374145507812,-0.12119816988706589,0.5870793461799622,-0.4109191298484802,-0.5497097969055176,-0.21115685999393463,-0.8201081156730652,-0.35256054997444153,-0.8517102599143982,2.1707160472869873,0.7633569240570068,-0.33181655406951904,-0.5422731041908264,0.1322573572397232,0.16378943622112274,0.756061315536499,-0.01598956249654293,0.9866324663162231,-0.16940242052078247,0.47347089648246765,-0.569208025932312,1.6717864274978638,-0.2938915193080902,1.3717831373214722,-0.5525833964347839,1.284171223640442,-0.08559765666723251,-0.0031238715164363384,-1.1954556703567505,0.1633538156747818,0.5601837635040283,1.7076131105422974,0.2898276448249817,1.7001022100448608,-1.0736185312271118,-1.1986913681030273,0.35114210844039917,5.465662002563477,0.8711545467376709,2.1489596366882324,0.3464990258216858,-0.09774968773126602,-0.48333027958869934,0.9394412040710449,0.5727818608283997,0.5010042786598206,1.9380807876586914,0.7541626691818237,1.045756459236145,0.7511105537414551,2.1427104473114014,-1.210793137550354,0.1666228473186493,0.2734632194042206,0.5655688643455505,0.3721487522125244,1.1182990074157715,2.5500307083129883,1.1678038835525513,-0.3220131993293762,0.6288520693778992,2.053985595703125,2.1404590606689453,1.9022659063339233,-0.6752966642379761,1.4859532117843628,-0.29423919320106506,-0.12427210062742233,1.7913450002670288,0.24215099215507507,1.2863801717758179,0.8763492703437805,1.0479059219360352,-0.01443179789930582,1.2867026329040527,-0.5482755303382874,1.12348473072052,-1.2919327020645142,-1.0493375062942505,-2.2081480026245117,-0.2343379259109497,0.43334710597991943,1.6149510145187378,-0.601847767829895,0.9298524856567383,2.336772918701172,1.0379382371902466,1.7427151203155518,-0.6133632659912109,0.2975664436817169,-3.1345131397247314,-0.05144099146127701,-0.17574313282966614,3.198789358139038,2.1482672691345215,-0.8760987520217896,1.648128628730774,0.7742065787315369,2.1891584396362305,-1.9481041431427002,1.6241296529769897,0.5541933178901672,0.9887053966522217,0.6299212574958801,0.45407432317733765,0.1979384869337082,0.4796451926231384,0.257948100566864,1.343821406364441,-1.1542448997497559,0.6221145987510681,0.4833671450614929,2.225403070449829,0.2718133330345154,1.516492247581482,0.9686463475227356,2.618481397628784,0.3057432174682617,1.5720021724700928,0.3477783799171448,1.8372553586959839,1.0317037105560303,2.154794931411743,1.8992416858673096,0.49367350339889526,-0.9003470540046692,1.2889193296432495,1.6843161582946777,1.0991798639297485,2.5438332557678223,0.18174636363983154,1.0436726808547974,1.3330357074737549,-0.7511482834815979,0.2362346351146698,2.3347787857055664,1.8675919771194458,-0.8968403935432434,1.5913245677947998,1.6265816688537598,0.3586902618408203,0.21447299420833588,1.504785180091858,2.3108034133911133,-0.6368257999420166,1.236212968826294,1.8146188259124756,-1.0439987182617188,-0.7266963124275208,0.6563427448272705,0.003786841407418251,0.46767935156822205,0.08340312540531158,1.1230050325393677,1.1188608407974243,1.8141255378723145,-0.8769726157188416,0.878989577293396,1.3345372676849365,1.4424748420715332,-2.0753049850463867,0.43872734904289246,0.7637439370155334,-0.7903115153312683,1.4198758602142334,0.4476696848869324,-0.33361244201660156,4.306498050689697,1.1098219156265259,0.45226171612739563,-0.49381574988365173
SAMPLE_0001,-1.3077762126922607,2.2098166942596436,-0.5905630588531494,0.5016213059425354,0.17478913068771362,-0.9864044785499573,0.9836093783378601,1.3077260255813599,0.1684030145406723,0.6172648072242737,0.25493407249450684,-0.7977837324142456,1.2946441173553467,0.7728222608566284,0.5732534527778625,2.1422362327575684,1.162529706954956,0.3848128616809845,-0.529880166053772,0.8057258129119873,0.24919511377811432,0.6806766986846924,0.7410591244697571,1.3986091613769531,0.43321526050567627,2.8652405738830566,-0.16696704924106598,-0.7632522583007812,1.2295269966125488,0.28425294160842896,0.9237053990364075,1.1662571430206299,0.9905786514282227,0.6397833228111267,-0.03381918743252754,1.0867903232574463,0.8621866106987,1.3657063245773315,1.4628043174743652,1.124131679534912,-0.8897448778152466,0.541351318359375,1.3036366701126099,1.2548686265945435,1.8963122367858887,0.6580319404602051,0.931734561920166,-0.5825933218002319,1.969794750213623,0.4630720019340515,1.8540234565734863,-0.07472093403339386,-0.11077002435922623,-0.858241081237793,0.3334062397480011,1.0846647024154663,1.0195075273513794,1.7002086639404297,-0.066172294318676,0.22154664993286133,2.828463077545166,2.4091861248016357,-0.9591652154922485,2.6030313968658447,1.3722285032272339,3.3354458808898926,-0.09060728549957275,0.3376476466655731,2.638410806655884,0.6097055673599243,0.20186683535575867,1.1672542095184326,-0.8468830585479736,1.1371999979019165,1.5339099168777466,0.68494713306427,0.8444419503211975,0.0830269306898117,1.6794027090072632,-0.3857066035270691,-1.3143236637115479,1.1341338157653809,-0.33051466941833496,1.6902275085449219,1.6617491245269775,0.8374231457710266,-0.6395530700683594,-0.2408744841814041,-0.27497681975364685,-0.7115691900253296,0.8535557389259338,-0.027763115242123604,2.5756893157958984,-0.12162202596664429,-0.031745266169309616,0.3845479190349579,1.2026796340942383,1.0084819793701172,0.6577135920524597,0.7836303114891052,-0.7375069260597229,0.626288115978241,1.0917717218399048,1.4034615755081177,0.484842449426651,-0.6321914196014404,-0.22394542396068573,-0.03487485647201538,2.349186420440674,1.0465222597122192,1.2948652505874634,1.273898959159851,0.20900404453277588,1.366538405418396,1.2347205877304077,0.25038713216781616,1.6147178411483765,0.9303682446479797,2.903144598007202,1.1429842710494995,-0.7104622721672058,-0.479006290435791,3.198441982269287,0.9604352712631226,1.1340216398239136,1.6890630722045898,1.320090889930725,1.3846627473831177,0.7874999642372131,0.8923288583755493,-0.5449562072753906,-0.7556729912757874,0.4846736490726471,0.28581926226615906,-0.7445384860038757,-1.3132598400115967,1.1234302520751953,1.888799786567688,0.6030908823013306,0.5729719400405884,-0.07910040766000748,0.7345497608184814,-0.4647291600704193,1.5388365983963013,0.4149959087371826,1.5071775913238525,-0.38412171602249146,1.2100756168365479,-0.8914523720741272,0.8795062899589539,1.3301035165786743,-0.38107389211654663,2.397810220718384,1.8469383716583252,1.79215407371521,2.1192736625671387,0.6602150201797485,0.19544938206672668,1.2030647993087769,3.153062343597412,-0.6783546805381775,1.3623298406600952,-0.3804571330547333,2.520294189453125,-0.9938332438468933,1.5479079484939575,0.07479898631572723,0.38814371824264526,0.09266100823879242,1.4672715663909912,0.4337048828601837,1.2706166505813599,-0.0018150417599827051,3.7818918228149414,1.1965025663375854,-0.5731827616691589,2.2088258266448975,-1.0894269943237305,0.28801286220550537,1.4833256006240845,-0.05144314840435982,1.4395084381103516,0.3130599558353424,0.7773429155349731,-0.8808825612068176,-1.2125799655914307,-1.3742811679840088,1.8157644271850586,1.7531287670135498,-0.7207289338111877,0.9776394963264465,1.5425785779953003,-0.0715736597776413,0.5066725015640259,0.018339117988944054,0.7106395959854126,1.4475407600402832,1.3899215459823608,0.8503965139389038,1.5423399209976196,0.7836779356002808,-0.848655104637146,-1.154437780380249,1.2616747617721558,1.74954092502594,0.16596591472625732,-0.5764385461807251,1.012162208557129,0.4416114389896393,1.2429689168930054,-0.19067898392677307,0.877336859703064,1.1894022226333618,0.05147363990545273,-0.7531335949897766,1.1206624507904053,2.4836137294769287,1.9205162525177002,-0.7030446529388428,0.04306042194366455,1.0204840898513794,1.735573172569275,0.5303980708122253,1.5153930187225342,2.302318811416626,-0.1643286645412445,-0.48254120349884033,-0.5244077444076538,1.2373061180114746,1.4475089311599731,3.49287748336792,0.11617637425661087,-0.2164999544620514,0.8869577050209045,-0.3280331790447235,0.327866792678833,0.9096351861953735,0.16900761425495148,1.9565925598144531,0.5628591179847717,1.2094885110855103,-0.8546628355979919,1.1128180027008057,1.7828842401504517,0.20970779657363892,-0.24807456135749817,1.8296343088150024,1.8142086267471313,1.322141408920288,2.068223476409912,-0.24228963255882263,0.2371753752231598,-1.039925456047058,0.7648971080780029,1.3356273174285889,0.7431870698928833,2.9394428730010986,0.7153007984161377,-1.47439444065094,0.7579621076583862,2.6877877712249756,0.5550721883773804,1.1978265047073364,1.0845667123794556,0.22330357134342194,0.6782221794128418,0.8017332553863525,1.4296092987060547,1.0243264436721802,2.0863516330718994,1.8135263919830322,-0.6410354971885681,0.07265971601009369,1.8108071088790894,-0.8673393130302429,-0.7195281982421875,-0.17139016091823578,2.4974939823150635,0.3068530857563019,0.9408863186836243,-0.9461263418197632,0.7720188498497009,-0.08486736565828323,-0.2440810352563858,0.5096631050109863,0.3055073320865631,0.43803587555885315,1.1981314420700073,-0.1761060208082199,0.9715176224708557,0.3400856852531433,-2.0676329135894775,-0.1062690019607544,1.4568657875061035,1.7724395990371704,-1.7161855697631836,-0.0777563601732254,0.7010215520858765,-0.5213404297828674,-0.37173476815223694,0.9487918019294739,0.4617410898208618,1.0420186519622803,1.6818374395370483,0.9508708715438843,1.4765490293502808,-0.18684403598308563,-2.528806209564209,-0.8970485925674438,3.7952563762664795,2.088991165161133,-0.061427000910043716,0.7365221381187439,0.467192143201828,0.9354543089866638,-0.061243388801813126,0.7879121899604797,1.2069987058639526,-0.08194476366043091,1.9073829650878906,1.527082920074463,0.926799476146698,-0.997250497341156,2.8639168739318848,0.6667910218238831,1.0241234302520752,-0.43435582518577576,0.9026445746421814,-1.6248282194137573,-0.02997986413538456,0.5358734726905823,-1.54891836643219,1.875873327255249,0.3227856457233429,0.59322589635849,0.5326151251792908,-0.16414307057857513,0.6825316548347473,1.4453506469726562,3.6756951808929443,-1.9413115978240967,-0.40522336959838867,2.2450833320617676,1.5653586387634277,-2.126002311706543,-2.0119948387145996,2.1084420680999756,-1.4096678495407104,2.3265364170074463,2.0556840896606445,1.102702021598816,-0.10859891027212143,1.91896390914917,1.8870280981063843,2.902717113494873,-1.3205807209014893,1.4264802932739258,2.6312904357910156,-1.1023194789886475,3.971168279647827,0.11239755153656006,0.05025072023272514,0.6806931495666504,1.0878822803497314,-0.47449424862861633,1.991815447807312,0.8348753452301025,2.1793839931488037,0.5140596032142639,1.4943588972091675,1.1261686086654663,0.5109500885009766,2.9210689067840576,-0.5544357299804688,1.0889896154403687,1.8646600246429443,0.655803382396698,0.6322413086891174,-0.8718318939208984,0.15129099786281586,0.7142148613929749,-0.7264283299446106,1.6041476726531982,2.3864009380340576,-0.3819170892238617,-0.199757918715477,1.2954190969467163,-0.3128684461116791,1.715567946434021,1.4068259000778198,2.4032058715820312,-1.3941328525543213,2.714970827102661,1.3248807191848755,1.6412932872772217,0.6053997278213501,0.49232473969459534,-0.09620489180088043,0.7563667893409729,-0.09341174364089966,5.763365268707275,-2.2208092212677,1.7748820781707764,0.2565167248249054,0.6301323175430298,1.0419597625732422,1.102856159210205,0.3123515546321869,1.337586760520935,-1.075576663017273,-1.1734927892684937,-0.5303313136100769,-0.6893793344497681,0.863733172416687,1.1992915868759155,0.38244280219078064,0.408518522977829,-0.3714645504951477,0.3151977062225342,0.46796324849128723,1.2388339042663574,0.4770270586013794,-0.1308470219373703,0.620559573173523,-0.3470176160335541,0.5187541842460632,0.35841113328933716,2.1224966049194336,1.8055037260055542,0.3853428363800049,0.9278696179389954,-1.1715965270996094,-0.013018281199038029,-0.9416698217391968,0.3192211985588074,1.6005226373672485,1.7241321802139282,-1.5795038938522339,2.4621150493621826,-1.2748253345489502,-0.30362993478775024,0.8688194751739502,-1.0797405242919922,-1.3485711812973022,1.2649853229522705,2.2602624893188477,-0.2578778862953186,-0.7220330238342285,0.05546993762254715,0.22067484259605408,0.10167496651411057,0.6441838145256042,-0.08030234277248383,0.5471885204315186,2.1546454429626465,1.3445510864257812,-0.20092160999774933,0.03200230374932289,-0.49318987131118774,-2.2457592487335205,-0.8050540089607239,0.48062118887901306,2.4314355850219727,2.418222665786743,-1.0427708625793457,4.092455863952637,0.03574036434292793,1.0669060945510864,-0.8786934018135071,1.551314353942871,0.017676793038845062,2.5060625076293945,-0.20862418413162231,0.41588717699050903,2.2298645973205566,-0.6778100728988647,-0.05567436292767525,0.6275158524513245,2.5511457920074463,-0.6937382817268372,-0.1379770040512085,-0.7388536334037781,2.281534194946289,0.35180404782295227,1.00477933883667,-0.017440777271986008,1.6124323606491089,0.4023028314113617,0.254256933927536,0.7972727417945862,-0.31645405292510986,-0.9332422614097595,0.5360172390937805,0.8003272414207458,0.6388065218925476,-0.3213535249233246,-0.5508591532707214,0.5312076807022095,-0.2738982141017914,1.1786365509033203,2.1553938388824463,0.6656198501586914,-0.3330550789833069,1.3258123397827148,0.7842810750007629,0.5976405143737793,-0.08205088973045349,0.5238670706748962,-1.1467920541763306,-1.9029321670532227,0.2594642639160156,0.23455630242824554,0.013930258341133595,0.9068856239318848,0.7279803156852722,1.1147336959838867,-1.4056452512741089,0.9372660517692566,-0.2649131715297699,2.874941825866699,0.5675140023231506,-0.4502806067466736,0.67014479637146,1.451682209968567,1.0191339254379272,1.5701911449432373,1.9563145637512207,0.9420974254608154,2.513329029083252,-1.371742844581604,-2.148399829864502,1.026381015777588,0.07167670130729675,-0.2734205722808838,-1.9297072887420654,-0.028341438621282578,-1.5323879718780518,0.21223410964012146,0.139931783080101,0.5642063617706299,0.9711189866065979,-1.1041185855865479,-1.295578122138977,-0.1506112515926361,-0.5485401153564453,-0.0027220426127314568,2.021498918533325,-0.4817250370979309,-0.26234328746795654,0.5728197693824768,-0.5192871689796448,1.4241487979888916,0.5628781318664551,-0.00675573106855154,-0.22912350296974182,0.1554531455039978,0.3549066483974457,-1.469826102256775,0.6288400292396545,0.7016379833221436,-0.8680566549301147,1.4351996183395386,0.5527085661888123,1.1589138507843018,1.2841272354125977,0.4027225375175476,0.682895839214325,1.4114031791687012,-0.755921483039856,-1.067488193511963,-0.5027037262916565,-0.5830180644989014,-0.21926474571228027,-0.2103089839220047,-0.9029637575149536,2.3983869552612305,0.010036345571279526,1.1671465635299683,-0.042542461305856705,2.805920124053955,1.0602660179138184,0.13833646476268768,2.2100443840026855,1.0802301168441772,0.15499654412269592,1.2042182683944702,0.5420836806297302,-0.14902319014072418,-0.8652113676071167,-0.3401929438114166,1.146813988685608,1.236580491065979,0.4493253529071808,1.8300466537475586,0.38981422781944275,0.28327885270118713,0.35679471492767334,1.8589699268341064,-0.22036653757095337,0.24024046957492828,-0.47336259484291077,-0.6640422940254211,-0.12936805188655853,-2.0111236572265625,-0.16971763968467712,-0.23767459392547607,2.5990402698516846,0.8529390096664429,0.14275012910366058,-0.31072553992271423,0.12948663532733917,0.18225950002670288,0.8802736401557922,0.20669278502464294,0.7945405840873718,-0.19928081333637238,0.10708518326282501,-1.26080322265625,2.1045773029327393,-0.3212493062019348,2.070192813873291,-0.7564202547073364,1.4342420101165771,-0.7260364294052124,-0.21198667585849762,-0.9874356389045715,-0.026344694197177887,0.3758676052093506,1.5600321292877197,0.8888246417045593,1.2269684076309204,-0.8156663775444031,-0.9265557527542114,0.5098667144775391,5.319389343261719,1.2228718996047974,2.03643536567688,0.7563981413841248,0.12528978288173676,-0.3413519263267517,1.0583313703536987,0.48839062452316284,0.56858229637146,1.960687279701233,0.6521144509315491,1.2573155164718628,0.6915718913078308,2.556938409805298,-0.4496805965900421,-0.3221173882484436,-0.002578998915851116,0.2793189287185669,-0.17806631326675415,1.2768930196762085,2.368788003921509,0.5273087620735168,-0.24534770846366882,1.1037415266036987,2.004533529281616,2.402979612350464,1.9815036058425903,-0.19901500642299652,2.0578536987304688,-0.24886052310466766,-0.10749896615743637,1.0652079582214355,0.4398913085460663,0.951062798500061,0.6342906355857849,1.0021417140960693,0.011843531392514706,0.9714019894599915,-0.6115570068359375,1.1012976169586182,-1.9798507690429688,-1.2585515975952148,-2.164562225341797,-0.013051203452050686,-0.06222488358616829,1.2798247337341309,-0.5320528745651245,1.3060379028320312,1.7188847064971924,0.8028524518013,1.5415347814559937,-0.7728441953659058,0.12666264176368713,-2.219074249267578,0.31756526231765747,-0.6426748633384705,2.7237794399261475,1.6070533990859985,-1.3620048761367798,1.2441649436950684,0.8290470242500305,2.0944900512695312,-1.6275159120559692,1.3234614133834839,0.24308045208454132,0.21998833119869232,0.6884830594062805,0.9378162622451782,-0.19911327958106995,0.7112218141555786,-0.025790845975279808,1.2203456163406372,-0.5298194289207458,0.45034441351890564,0.27420157194137573,1.6968661546707153,0.2693682909011841,1.4277126789093018,1.1891803741455078,2.8431053161621094,-0.26369398832321167,1.4971287250518799,0.23194891214370728,1.5603992938995361,0.5037899613380432,2.4257757663726807,1.8354942798614502,0.4654470682144165,-1.00905442237854,0.9724348783493042,1.2918932437896729,0.9938353300094604,2.380849599838257,-0.021130263805389404,1.226924180984497,1.3570339679718018,-0.5010233521461487,0.7632371187210083,2.448568105697632,1.5914301872253418,-1.2833623886108398,0.9820006489753723,1.4394710063934326,0.3237968683242798,-0.11207188665866852,0.9130798578262329,2.270733118057251,-0.682774543762207,1.6543036699295044,1.9477323293685913,-1.5355545282363892,-0.70032799243927,0.4973170757293701,0.27610692381858826,0.661715030670166,-0.2444249987602234,0.6961497068405151,0.42304542660713196,1.2975190877914429,-1.6798094511032104,1.3451030254364014,0.7174358367919922,0.7896213531494141,-2.4555203914642334,0.1824064999818802,0.6550570130348206,-0.8115511536598206,1.7080224752426147,0.7971497774124146,-0.7813652753829956,4.848156929016113,0.890870213508606,0.7418121099472046,-0.3978753983974457
SAMPLE_0002,-1.1138685941696167,2.284505605697632,-0.40182843804359436,0.5490416884422302,0.056974299252033234,-0.7889814972877502,0.8496620655059814,0.9835447072982788,0.15355892479419708,0.38511890172958374,0.45099931955337524,-0.7071496844291687,1.462369680404663,0.6685916781425476,0.7540041208267212,2.035569667816162,0.7821531891822815,0.493533194065094,-0.32096779346466064,0.870495617389679,0.3359192907810211,0.5943825244903564,0.7826460599899292,0.7955464720726013,0.31277474761009216,3.000991106033325,0.0006233829190023243,-0.8207186460494995,1.539799451828003,-0.03019389696419239,1.0000643730163574,0.922181248664856,0.9363914132118225,0.6041312217712402,0.11506890505552292,0.9053670167922974,1.0320528745651245,1.4581053256988525,1.1257846355438232,1.0941128730773926,-0.7382126450538635,0.44156157970428467,1.5515947341918945,1.1904048919677734,1.9567930698394775,1.0104504823684692,0.8600447177886963,-0.5556126236915588,1.9925278425216675,0.478630930185318,2.0945534706115723,-0.07039336860179901,-0.050287358462810516,-0.8482798337936401,0.5246936678886414,1.2978721857070923,1.128380298614502,1.6074445247650146,0.0034518579486757517,0.2851785123348236,2.6730024814605713,2.795501947402954,-1.1935042142868042,2.6852195262908936,1.413491129875183,3.295443296432495,-0.11629753559827805,0.3949478268623352,2.8431248664855957,0.3527889549732208,0.2749677002429962,1.6239317655563354,-0.8283083438873291,1.2958827018737793,1.7626571655273438,0.8097429275512695,1.1517019271850586,0.07543675601482391,1.4688911437988281,-0.17686231434345245,-1.4240020513534546,0.9815016984939575,0.11375296860933304,1.8782169818878174,1.9011664390563965,1.5307896137237549,-0.792687714099884,0.035461802035570145,-0.10548871010541916,-0.369357168674469,1.2125190496444702,-0.09989546984434128,2.3183560371398926,0.014139053411781788,0.30868661403656006,0.35463249683380127,1.4671159982681274,0.9679611921310425,1.2072741985321045,0.5770208239555359,-0.7595202326774597,0.6764823794364929,1.040872573852539,1.3225769996643066,0.24719960987567902,-0.19499187171459198,-0.36543548107147217,0.0405130572617054,2.449312448501587,1.304294466972351,1.2354545593261719,1.5256609916687012,0.28861120343208313,1.695103406906128,1.3618593215942383,0.6537701487541199,1.6632068157196045,1.1891543865203857,2.817497491836548,1.1706615686416626,-0.638652503490448,-0.12381061166524887,3.712876558303833,0.9960420727729797,1.3350708484649658,2.2414608001708984,1.281093955039978,1.6459168195724487,0.6242643594741821,1.0813485383987427,-0.5678297281265259,-0.6167498826980591,0.18830224871635437,0.3133217394351959,-0.6373270153999329,-1.5318397283554077,1.1534373760223389,1.6957335472106934,0.7075735330581665,0.4363228976726532,0.2680867612361908,0.7831308841705322,-0.23426711559295654,1.3365697860717773,0.27514153718948364,1.3789582252502441,-0.24892742931842804,1.5881835222244263,-0.8393705487251282,0.6583074331283569,1.51152765750885,-0.031889889389276505,2.2959158420562744,1.5713475942611694,1.998985767364502,2.0926411151885986,0.7766759395599365,0.09046332538127899,0.8958098292350769,3.3329811096191406,-0.6549608707427979,1.2984658479690552,-0.35231074690818787,2.333014488220215,-1.0068110227584839,1.1301543712615967,-0.0638110339641571,0.3542664647102356,0.0386619009077549,1.4772971868515015,0.4621250033378601,0.9363012909889221,-0.4362483620643616,3.770977020263672,1.409303903579712,-0.22693057358264923,1.9083541631698608,-0.9075891375541687,0.2683914005756378,1.457842469215393,-0.06436778604984283,1.4723644256591797,0.20027321577072144,0.9022657871246338,-0.5753672122955322,-1.3812501430511475,-1.2087302207946777,1.6378074884414673,1.945723295211792,-0.7346196174621582,1.0403705835342407,1.5085692405700684,0.023605357855558395,0.5329592823982239,-0.18539723753929138,0.37682709097862244,1.4004299640655518,1.634480357170105,0.9650834798812866,1.3698060512542725,1.1316726207733154,-0.8630592226982117,-0.5851643681526184,1.0221459865570068,1.8367515802383423,0.23964694142341614,-0.5877444744110107,1.1318130493164062,0.5529109239578247,1.6150120496749878,-0.15033119916915894,1.0992454290390015,1.2162572145462036,0.38348379731178284,-0.9825111627578735,1.154958963394165,2.4824728965759277,2.0524210929870605,-0.7938428521156311,-0.011446981690824032,1.1991769075393677,1.8128467798233032,0.9875272512435913,1.1693718433380127,2.1116721630096436,-0.39755597710609436,-0.2406405508518219,-0.49066638946533203,1.5281440019607544,1.2446563243865967,3.4815752506256104,0.15968097746372223,-0.04508322849869728,0.8773660659790039,-0.5863860249519348,0.3641694188117981,1.2106572389602661,0.2526772916316986,1.9785268306732178,0.4417129456996918,1.0010353326797485,-0.5778113603591919,1.175741195678711,2.018686294555664,0.42255428433418274,-0.34512969851493835,1.800821304321289,2.0574822425842285,1.0882750749588013,2.3573265075683594,-0.5364289283752441,0.13623222708702087,-1.019848108291626,0.6697819828987122,1.3342440128326416,0.5878187417984009,3.2986671924591064,0.6615683436393738,-1.2399705648422241,1.1587449312210083,2.404973268508911,0.4232787787914276,1.0884538888931274,1.4437263011932373,0.09161977469921112,0.7375917434692383,0.7368797063827515,1.3259320259094238,1.227300763130188,2.0696566104888916,1.5788146257400513,-0.5100890398025513,0.0919354036450386,2.100219249725342,-0.3991873264312744,-0.7039124369621277,-0.06450929492712021,2.800351142883301,0.44660484790802,0.588522732257843,-0.7791019678115845,1.0091757774353027,-0.1836107075214386,0.3057965338230133,0.6356099843978882,0.2941987216472626,0.09466153383255005,0.9402261972427368,0.13921362161636353,1.4138370752334595,0.0936555415391922,-1.88888418674469,-0.25016096234321594,1.5305521488189697,1.570792555809021,-1.6620196104049683,0.20309221744537354,0.6460111737251282,-0.7619778513908386,-0.10115901380777359,1.2642582654953003,0.2802295684814453,0.9171139597892761,1.6052690744400024,0.8881020545959473,1.5732166767120361,-0.29041221737861633,-2.225912570953369,-0.8617640733718872,3.951115131378174,2.0039398670196533,-0.020996207371354103,0.8279426693916321,0.5667105317115784,1.0990279912948608,0.09679964184761047,0.7052455544471741,1.664359450340271,-0.15228955447673798,2.170079469680786,1.4277526140213013,0.7635185718536377,-0.8114492893218994,2.717266082763672,0.937795102596283,1.1183940172195435,-0.2981020212173462,0.7792847752571106,-1.6070352792739868,0.10619843751192093,0.621806800365448,-1.4440022706985474,2.2021074295043945,-0.05110207572579384,0.526780903339386,0.42718708515167236,-0.007830651476979256,0.7065228223800659,1.5011299848556519,3.644174575805664,-1.7904421091079712,0.1889936476945877,2.586394786834717,1.5311152935028076,-2.2438416481018066,-2.01385235786438,2.026156425476074,-1.1754028797149658,2.140674114227295,2.0449094772338867,0.8936610221862793,0.027936292812228203,1.531934142112732,2.368452310562134,3.0754640102386475,-1.4885295629501343,1.5189536809921265,2.8785457611083984,-0.9283261895179749,3.843273639678955,0.4535243511199951,0.03269313648343086,0.9421640634536743,0.8442694544792175,-0.6038686633110046,2.101713180541992,0.7614508867263794,2.3426265716552734,0.5896140336990356,1.8370662927627563,1.2716164588928223,0.46795889735221863,2.770051956176758,-0.7586209177970886,0.9449650049209595,2.0621230602264404,0.5266821980476379,0.28991055488586426,-0.4344262480735779,0.5044781565666199,0.931074857711792,-0.6013295650482178,1.6026875972747803,2.2468738555908203,0.05847792327404022,0.01463460735976696,0.9871185421943665,-0.3797929286956787,1.5613114833831787,1.5921647548675537,2.3300833702087402,-1.0591323375701904,2.7168397903442383,1.4381111860275269,2.1741182804107666,0.5315369963645935,0.3185995817184448,-0.05595526099205017,0.5790987610816956,-0.46388664841651917,5.59681510925293,-1.399449110031128,1.7475610971450806,0.36313384771347046,0.3935845196247101,0.9604001045227051,1.284658670425415,0.38716256618499756,1.4929020404815674,-1.0949593782424927,-0.9797669649124146,-0.5909187197685242,-0.49449223279953003,1.1840109825134277,1.0746448040008545,0.23688079416751862,0.43491101264953613,-0.5637644529342651,0.011189399287104607,0.4257667362689972,1.2435052394866943,0.4146020710468292,-0.19819548726081848,0.7825695276260376,-0.06123882159590721,0.4412330389022827,0.3216071128845215,2.0840446949005127,1.6424663066864014,0.4743257761001587,0.7165245413780212,-1.3516582250595093,0.003665624186396599,-0.7139535546302795,0.4760611653327942,1.3406562805175781,1.5629068613052368,-1.767619013786316,2.22184681892395,-1.562934398651123,-0.24125738441944122,0.6787813305854797,-1.15006422996521,-1.3534088134765625,1.5018285512924194,2.5866334438323975,-0.1493338793516159,-0.5630441904067993,0.3632450997829437,0.049438390880823135,-0.007941771298646927,0.8307727575302124,-0.1301054060459137,0.4528897702693939,1.868515968322754,1.3519930839538574,-0.38780298829078674,-0.1944276988506317,-0.11940500140190125,-2.1162991523742676,-0.41627535223960876,0.5757769346237183,2.616623640060425,2.054839849472046,-1.111504077911377,3.9367740154266357,0.2839981019496918,1.0475269556045532,-0.36727219820022583,1.7038215398788452,-0.2687356173992157,2.4678261280059814,0.10281190276145935,0.524702250957489,2.280440092086792,-0.4012710154056549,0.4900856614112854,0.5590314269065857,2.722480297088623,-0.3568456768989563,0.0459229052066803,-0.8128875494003296,2.365755796432495,0.09957204759120941,1.2039344310760498,0.43323269486427307,1.200881838798523,0.38208305835723877,0.34150707721710205,0.6791428923606873,-0.1709524393081665,-0.8024707436561584,0.593187689781189,0.45772817730903625,0.6242933869361877,-0.26899880170822144,-0.7143434882164001,0.3613366484642029,-0.29691240191459656,1.3703763484954834,2.193023920059204,0.7779146432876587,-0.026670780032873154,1.0080292224884033,0.8172955513000488,0.8582355976104736,-0.1594838947057724,0.25753313302993774,-0.8904234170913696,-1.8841198682785034,0.14581146836280823,0.26501351594924927,-0.13855479657649994,0.7746542096138,0.5726285576820374,1.020861268043518,-1.2486984729766846,0.9937731623649597,-0.2079407274723053,3.302619218826294,0.6553065776824951,-0.363608181476593,0.7834666967391968,1.4412378072738647,0.6690826416015625,1.7813326120376587,1.8514533042907715,0.7708067297935486,2.4550082683563232,-1.5474450588226318,-1.550917625427246,0.9486944675445557,0.03403335064649582,-0.314120352268219,-1.718961238861084,0.026639524847269058,-1.1293635368347168,0.3300839066505432,0.02770034410059452,0.6315964460372925,0.6522341966629028,-1.16492760181427,-1.1079459190368652,-0.07038191705942154,-0.2032860517501831,0.06354951113462448,2.296654224395752,-0.6724046468734741,0.05500218644738197,0.43718987703323364,-0.4754120707511902,1.8580111265182495,0.8614057302474976,0.12941549718379974,-0.2204056680202484,0.28985685110092163,0.5436029434204102,-1.3708235025405884,0.6705355644226074,0.9669861793518066,-0.43221211433410645,1.4547311067581177,0.2546742856502533,1.4057093858718872,0.960627555847168,0.5596932768821716,0.6685940623283386,1.8304004669189453,-0.7503651976585388,-1.006605863571167,-0.433470755815506,-0.3129672408103943,-0.5115994811058044,-0.029338303953409195,-0.8742754459381104,2.4690816402435303,0.3019661605358124,1.0036189556121826,0.10237191617488861,2.6207733154296875,1.4207355976104736,-0.0018603067146614194,2.4355616569519043,0.9681589007377625,0.18909260630607605,1.0389317274093628,0.434003621339798,0.029543764889240265,-0.4426153898239136,-0.3136930465698242,1.3716192245483398,1.4569320678710938,0.6819410920143127,1.7190508842468262,0.33956190943717957,0.3540186583995819,-0.03035326860845089,2.348191976547241,-0.09638115763664246,0.46886616945266724,-0.3310466706752777,-0.48232102394104004,-0.017750827595591545,-1.4268165826797485,-0.20442786812782288,-0.5495178699493408,2.4545671939849854,0.6951854228973389,0.05174089968204498,-0.3209654986858368,0.3101799190044403,0.05278859660029411,0.816541314125061,0.04830845445394516,0.8533434867858887,-0.04876468703150749,0.3668912351131439,-1.2309807538986206,1.9451004266738892,-0.23755742609500885,1.9220051765441895,-0.5870435237884521,1.4786938428878784,-0.32523205876350403,-0.04582119360566139,-0.9861233830451965,0.11438437551259995,0.3316013813018799,1.447485327720642,0.6342660784721375,1.4035868644714355,-0.8628005385398865,-1.083027958869934,0.4381450414657593,5.50681734085083,0.9377415180206299,2.019153356552124,0.513080894947052,0.058106500655412674,-0.14907042682170868,1.0646919012069702,0.7106090188026428,0.4193889796733856,2.093317985534668,0.8197029829025269,1.0558161735534668,0.699781060218811,2.406395673751831,-0.7958698272705078,-0.12048610299825668,0.06928141415119171,0.3147660195827484,0.15696218609809875,1.3534057140350342,2.6506853103637695,0.8203010559082031,-0.41621971130371094,0.8453333377838135,2.1808271408081055,2.1669118404388428,2.07558274269104,-0.46403226256370544,1.800761103630066,-0.3103296458721161,-0.12757602334022522,1.3234683275222778,0.22484636306762695,1.2485244274139404,0.5965972542762756,0.9971888661384583,-0.11182040721178055,1.0453948974609375,-0.7560706734657288,1.0660898685455322,-1.5281298160552979,-1.1276017427444458,-2.1831767559051514,-0.06406301259994507,0.09535408020019531,1.4649628400802612,-0.5118594765663147,1.2163057327270508,2.1085195541381836,0.8071152567863464,1.5296778678894043,-0.8292467594146729,0.21935711801052094,-2.6130576133728027,0.21055996417999268,-0.4805032014846802,2.941235065460205,1.8987689018249512,-1.0998506546020508,1.4645696878433228,0.9161696434020996,2.280806541442871,-1.7705271244049072,1.4216703176498413,0.35845834016799927,0.39946842193603516,0.6501128673553467,0.6086703538894653,0.07136472314596176,0.7245762348175049,0.18904224038124084,1.2652523517608643,-0.8238712549209595,0.5666972398757935,0.26158857345581055,1.7849140167236328,0.23076240718364716,1.4327291250228882,1.0508531332015991,2.8576323986053467,-0.13184988498687744,1.4433103799819946,0.2898687720298767,1.8639907836914062,0.669845700263977,2.2630958557128906,1.814805269241333,0.47369295358657837,-0.8645797371864319,1.0599617958068848,1.726319670677185,1.1073657274246216,2.654980182647705,0.21170394122600555,1.3147987127304077,1.543846845626831,-0.6045724153518677,0.4948868751525879,2.3052783012390137,1.8492231369018555,-1.209108591079712,1.2925910949707031,1.6135729551315308,0.41504859924316406,0.018458886072039604,1.172951102256775,2.418642997741699,-0.49696123600006104,1.5893837213516235,1.9235785007476807,-1.3229575157165527,-0.4760381281375885,0.5371596813201904,0.24964511394500732,0.6603761911392212,-0.09903126955032349,0.9143063426017761,0.8581919074058533,1.4397921562194824,-1.393083930015564,1.1084085702896118,0.8195596933364868,1.0437649488449097,-2.2054333686828613,0.5941656827926636,0.7498165369033813,-0.6146852970123291,1.624449372291565,0.6021783947944641,-0.5974419116973877,4.674747943878174,0.9708854556083679,0.7539986968040466,-0.4122377932071686
SAMPLE_0003,-1.2203155755996704,2.5784976482391357,-0.45862317085266113,0.18914566934108734,0.25317928194999695,-0.7527289986610413,1.1936640739440918,0.9133208394050598,-0.09221050888299942,0.5440810322761536,-0.025096334517002106,-0.39144590497016907,0.9432960152626038,0.42594143748283386,0.438342809677124,2.3358991146087646,0.8096864223480225,0.07176000624895096,-0.9077497720718384,0.7632557153701782,0.22392360866069794,0.8631410002708435,1.0401611328125,0.8581010103225708,0.5014334917068481,2.7395095825195312,0.03385553136467934,-1.0762957334518433,1.6061480045318604,0.34318652749061584,0.8313705921173096,1.1315953731536865,0.7659159302711487,0.7070250511169434,-0.4233497083187103,0.7461063861846924,1.097465991973877,1.1540697813034058,0.6383073925971985,1.12240469455719,-0.9902129173278809,0.43127429485321045,1.1339789628982544,1.1973356008529663,2.111370801925659,0.48369520902633667,0.8084173798561096,-0.9340887069702148,2.157827377319336,0.36665380001068115,2.1487624645233154,-0.5140154361724854,-0.15797820687294006,-0.5329340696334839,0.5279624462127686,1.150692105293274,1.2254287004470825,2.019850015640259,-0.3702040910720825,0.49623334407806396,2.9198572635650635,2.496950387954712,-1.21996009349823,2.674901008605957,1.4685813188552856,3.3959033489227295,-0.008473395369946957,0.3098824620246887,2.519960641860962,0.7415423393249512,-0.01559988223016262,1.39401113986969,-0.9228067398071289,1.3631949424743652,1.3150579929351807,0.32965758442878723,1.1593141555786133,0.2170797884464264,1.2732152938842773,-0.1293066143989563,-1.4864673614501953,1.4464973211288452,-0.28598251938819885,1.2581427097320557,2.0745463371276855,1.1628122329711914,-0.6134523153305054,0.0550890788435936,-0.06597533077001572,-0.7072333097457886,0.9488299489021301,-0.12120410799980164,2.402920961380005,0.12043827772140503,0.22491611540317535,0.3947467803955078,0.8143767714500427,1.1236976385116577,1.2951253652572632,0.775445282459259,-0.7777374982833862,0.5508167147636414,1.1525758504867554,1.2794400453567505,0.4265749454498291,-0.1061609759926796,-0.5031123757362366,0.14909633994102478,2.1639885902404785,1.1230448484420776,1.4848685264587402,0.9818406701087952,0.3637727200984955,1.2356117963790894,0.9423811435699463,0.7435699105262756,2.2097041606903076,0.9174050092697144,2.79367733001709,1.1267776489257812,-0.6902279853820801,-0.6577742099761963,2.867058277130127,1.4137564897537231,1.1808629035949707,2.054234027862549,1.3675321340560913,2.005711078643799,0.95445317029953,1.035428524017334,-1.0060325860977173,-0.470876544713974,0.5993720293045044,0.17020167410373688,-1.0763120651245117,-1.6845874786376953,0.98475581407547,1.6090656518936157,0.24792492389678955,0.8458044528961182,0.14892621338367462,1.0236307382583618,-0.14877676963806152,1.226744294166565,0.2746005654335022,1.5543180704116821,-0.5148888230323792,1.0582760572433472,-0.922964334487915,0.49833303689956665,1.2592328786849976,-0.19499580562114716,2.210432291030884,1.6892255544662476,1.5360909700393677,1.8846633434295654,0.8955789804458618,0.017431339249014854,1.0607973337173462,3.5097014904022217,-0.5705689191818237,1.2205193042755127,-0.47779759764671326,2.238809585571289,-0.8858532905578613,1.1310725212097168,0.007867840118706226,0.6911001801490784,-0.1267441064119339,0.9898048043251038,0.4294658303260803,0.5977064967155457,0.3455497920513153,3.842169761657715,1.0722181797027588,-0.8551400899887085,2.411648988723755,-1.150189757347107,0.14017395675182343,1.4597975015640259,-0.1441698968410492,1.1034327745437622,0.5201247930526733,1.0037291049957275,-1.0464191436767578,-1.3916239738464355,-1.611965298652649,1.8617255687713623,1.7486889362335205,-0.5021526217460632,1.2344306707382202,1.221088171005249,-0.2134319245815277,0.6156877875328064,-0.3527526557445526,0.6234132647514343,1.0533692836761475,1.2146538496017456,0.8787577152252197,1.6503384113311768,0.7095901370048523,-0.8284639120101929,-0.599626362323761,1.152278184890747,2.109973430633545,0.33964434266090393,-0.5970265865325928,0.8631616830825806,0.5742559432983398,1.3116751909255981,-0.34268343448638916,1.0819714069366455,1.086551308631897,0.23217633366584778,-0.49614375829696655,0.9665904641151428,2.272221565246582,1.9324779510498047,-0.9654437899589539,0.42996376752853394,0.7113094329833984,1.4788057804107666,0.9487700462341309,0.9331054091453552,2.123910903930664,-0.6000085473060608,-0.823582649230957,-0.7213901281356812,1.1434868574142456,1.3515336513519287,3.1348180770874023,0.09277159720659256,-0.3825000822544098,0.6871631145477295,-0.22306658327579498,0.23748011887073517,1.0210978984832764,0.333066463470459,2.07110857963562,0.8661425113677979,0.9908826947212219,-0.5908961296081543,1.1410326957702637,2.0534603595733643,0.2289915829896927,-0.5067067742347717,2.721632719039917,1.8845025300979614,0.9644400477409363,2.0536561012268066,-0.11041277647018433,0.12029685825109482,-1.4290727376937866,0.5838202238082886,1.2743743658065796,0.11558490246534348,2.3657467365264893,0.47935599088668823,-1.556525707244873,0.9056678414344788,2.4897234439849854,0.6928035020828247,1.2818081378936768,1.0962822437286377,0.3012678623199463,0.7647890448570251,0.578536331653595,1.190955400466919,1.1139100790023804,2.2713358402252197,1.6844525337219238,-0.7068687677383423,0.09578417986631393,2.1393373012542725,-1.0605217218399048,-0.9625252485275269,-0.6264018416404724,2.7593491077423096,0.7621603012084961,0.07477326691150665,-1.0283440351486206,0.6392961144447327,-0.14909477531909943,-0.5188999176025391,0.4989983141422272,-0.24007496237754822,0.7659320831298828,0.9315677285194397,-0.542701244354248,1.1113172769546509,0.2071816772222519,-1.8249213695526123,-0.3326140344142914,1.3959636688232422,1.4691495895385742,-1.5538650751113892,-0.04762030765414238,0.5916950702667236,-0.47057440876960754,-0.3094003200531006,0.7789016962051392,0.1968420445919037,1.279062032699585,1.4373527765274048,0.9650883674621582,1.9112153053283691,-0.6360951662063599,-2.3552987575531006,-1.0271793603897095,3.3414015769958496,1.956446647644043,-0.1492367684841156,0.7985085844993591,0.425938218832016,0.9744991660118103,-0.5858568549156189,1.100069284439087,1.3021388053894043,0.2470499575138092,1.7277436256408691,1.373730182647705,0.4843888580799103,-1.3574458360671997,2.5322465896606445,0.7889487743377686,1.11134672164917,-0.6193885803222656,0.6759247779846191,-1.598936915397644,-0.4987841248512268,0.8533636331558228,-1.416265845298767,1.6427658796310425,-0.10834096372127533,0.7710462212562561,0.19077380001544952,-0.08470775187015533,0.6849249601364136,1.3829354047775269,3.444891929626465,-1.6534780263900757,-0.1827947348356247,2.303070545196533,1.12141752243042,-2.412109851837158,-1.659409999847412,1.8630460500717163,-0.8669607043266296,2.1986212730407715,2.0396881103515625,0.7825982570648193,0.07412594556808472,1.8794759511947632,2.0252184867858887,2.96572208404541,-1.366665244102478,1.6107251644134521,2.3278768062591553,-1.3124912977218628,4.362074851989746,0.06101818010210991,-0.16869215667247772,0.9173142910003662,1.009903907775879,-0.64637291431427,2.352191925048828,0.9361278414726257,2.264946699142456,0.5652735233306885,0.9137371778488159,1.1989612579345703,0.3200552463531494,2.679673910140991,-0.8496747612953186,0.8644437789916992,1.5571820735931396,0.43350255489349365,0.1827809065580368,-0.8350670337677002,0.5233989357948303,0.37787410616874695,-0.8185803890228271,1.6023540496826172,2.498054265975952,-0.1301841288805008,-0.20629581809043884,1.2828209400177002,-0.08343994617462158,1.6938101053237915,1.1386455297470093,2.265685796737671,-1.139556884765625,2.665785551071167,1.5247856378555298,1.6970840692520142,0.41449055075645447,0.3197420835494995,0.12955793738365173,0.967918872833252,-0.5923057198524475,5.25870418548584,-2.160890579223633,1.9586282968521118,0.1586153358221054,0.3765881359577179,0.4613308906555176,1.5626050233840942,0.5286087393760681,1.1734319925308228,-0.6944683790206909,-1.376038670539856,-0.48492711782455444,-0.83985435962677,1.3409680128097534,0.9227630496025085,0.4538344442844391,0.18458004295825958,-0.17449893057346344,0.19584664702415466,0.14774157106876373,1.303398847579956,0.5733723044395447,-0.5805218815803528,0.8238496780395508,0.24839727580547333,0.3394668996334076,0.3294934630393982,2.3211469650268555,1.7218917608261108,0.32666540145874023,1.045361042022705,-1.3781911134719849,-0.2623143494129181,-0.9266777038574219,0.06293578445911407,1.5164661407470703,1.5755300521850586,-1.8513033390045166,2.461400032043457,-1.1992491483688354,-0.05197824165225029,0.7679425477981567,-1.2887057065963745,-1.5951377153396606,1.4852986335754395,1.9885709285736084,-0.13501302897930145,-0.6438183784484863,0.18359345197677612,-0.0997714176774025,0.04077751561999321,0.3612631857395172,-0.4337688684463501,0.2804129123687744,2.3190126419067383,1.0918176174163818,-0.3678025007247925,0.20897860825061798,-0.6968113780021667,-1.7079436779022217,-1.0684168338775635,0.29670295119285583,2.1561453342437744,2.2570719718933105,-1.1115524768829346,3.8234124183654785,-0.02395717054605484,1.1511938571929932,-0.7354861497879028,1.7569855451583862,0.04247354716062546,2.265385150909424,-0.1866840124130249,0.5493946671485901,2.3549864292144775,-0.5250967144966125,-0.2094685435295105,1.0300313234329224,2.9223363399505615,-0.6876716017723083,0.10276997834444046,-0.6963927745819092,2.3224172592163086,0.5645295977592468,0.8476186990737915,0.34732121229171753,1.364525556564331,0.40664902329444885,0.2917661666870117,1.006951928138733,-0.5269330143928528,-0.8576740622520447,0.39804527163505554,0.6632806062698364,0.8733527064323425,-0.9280969500541687,-0.5848021507263184,0.41523197293281555,-0.0020671093370765448,1.1996065378189087,1.5558944940567017,1.0738801956176758,0.14400064945220947,1.4599076509475708,0.8559442758560181,0.9363548159599304,-0.2216068059206009,0.5521085262298584,-1.226488471031189,-1.6652002334594727,0.4697073698043823,0.1413394957780838,0.11282943189144135,0.7500429749488831,0.585332453250885,1.347091555595398,-1.6097427606582642,1.1672790050506592,-0.6291492581367493,3.252373456954956,0.6482857465744019,-1.0102912187576294,0.5843831896781921,1.3213815689086914,0.4266940951347351,1.7714349031448364,1.9102753400802612,0.6249348521232605,2.770467519760132,-1.5937464237213135,-2.195420026779175,0.9389358162879944,-0.020185738801956177,0.016763940453529358,-1.7942026853561401,0.15201829373836517,-1.1363266706466675,0.2538093626499176,0.5945890545845032,0.548258900642395,0.7194963693618774,-1.1330267190933228,-1.4349151849746704,-0.43758490681648254,-0.49871182441711426,-0.11984559893608093,1.9443594217300415,-0.7309539318084717,-0.6514238715171814,0.18069416284561157,-0.6953392028808594,1.353590965270996,0.3312166631221771,-0.18455134332180023,-0.03068253956735134,0.5938868522644043,0.2467782199382782,-1.363963007926941,0.8124070167541504,0.8531620502471924,-0.7005833983421326,1.0928564071655273,0.35714229941368103,1.1383622884750366,0.9535418152809143,0.2799241542816162,0.7099929451942444,1.4789520502090454,-0.5831029415130615,-1.226306676864624,-0.23534129559993744,-0.6370378136634827,-0.560697615146637,-0.3172414302825928,-1.0892338752746582,2.1691179275512695,0.698603630065918,1.3209922313690186,-0.1399499624967575,2.9352779388427734,0.6835561394691467,0.7706506848335266,2.5183701515197754,1.337947130203247,0.3101024925708771,0.732242226600647,0.6637312769889832,-0.006037954241037369,-0.8092033267021179,-0.2109413892030716,1.1614526510238647,0.8351581692695618,0.48674431443214417,1.3430274724960327,-0.011260475032031536,0.38934916257858276,0.38099992275238037,2.247448205947876,-0.10610491782426834,0.5990710854530334,-0.21010196208953857,-0.6237754225730896,-0.2952468693256378,-1.3494905233383179,-0.2531404495239258,-0.5948386788368225,2.339177370071411,1.012500286102295,-0.13253279030323029,-0.7912894487380981,-0.02144620567560196,0.19656799733638763,0.975003182888031,0.11410954594612122,0.7544793486595154,-0.1966024488210678,0.2386002391576767,-0.9820781946182251,1.682530164718628,-0.2749078571796417,1.7473931312561035,-0.8486440181732178,0.9776247143745422,-0.3044354319572449,-0.35480383038520813,-1.207197904586792,-0.10855469852685928,0.3129972219467163,2.013644218444824,0.3560445010662079,1.348419427871704,-0.632867157459259,-1.0519076585769653,0.4809897541999817,5.175991058349609,1.2081260681152344,1.8767764568328857,0.6553260087966919,-0.0471644252538681,-0.575285017490387,0.9467153549194336,0.5122281908988953,0.7010051608085632,1.8794118165969849,0.5456016659736633,1.1332637071609497,0.8617561459541321,2.491603374481201,-1.2283495664596558,-0.24911972880363464,0.01818012446165085,0.5824252367019653,-0.0067760837264359,1.0491060018539429,2.09010910987854,0.9411380290985107,-0.3272853493690491,1.0994023084640503,1.746850609779358,2.5843441486358643,1.7785195112228394,-0.64227694272995,1.9231288433074951,-0.06578583270311356,-0.38088491559028625,1.4785215854644775,0.4199824333190918,0.697839617729187,1.0045708417892456,0.9230958223342896,0.18950696289539337,1.4424221515655518,-0.4153059124946594,1.277699589729309,-1.7672295570373535,-1.0853919982910156,-2.5601606369018555,-0.0024375314824283123,-0.141191303730011,1.2112282514572144,-1.0347776412963867,0.8845043182373047,2.0921871662139893,0.702099621295929,1.667582631111145,-0.7008616328239441,0.04139713570475578,-3.055452823638916,0.35614752769470215,-0.47794538736343384,3.016024589538574,1.8117187023162842,-1.1968190670013428,1.4685918092727661,0.5551267862319946,2.1595754623413086,-2.065640926361084,1.4791361093521118,0.44710293412208557,0.8095358610153198,0.823063850402832,0.9018117189407349,-0.22626228630542755,0.4245401620864868,0.052938517183065414,1.4191282987594604,-0.9062793254852295,0.7680456638336182,0.5092060565948486,2.0644006729125977,0.27406007051467896,1.5221432447433472,1.0657122135162354,2.516650438308716,-0.4403781294822693,1.5480461120605469,0.3184623718261719,1.5110981464385986,0.5966185927391052,2.2044854164123535,2.17400860786438,0.4779089391231537,-0.9492637515068054,0.9060568809509277,1.1097294092178345,1.0595663785934448,2.311513662338257,0.18009988963603973,1.2200651168823242,0.9325519800186157,-0.6393799781799316,0.5283969044685364,2.6351351737976074,1.6060211658477783,-0.9919248819351196,1.4879183769226074,1.397408127784729,0.15493185818195343,0.06252628564834595,1.2494020462036133,2.1138925552368164,-0.6671903133392334,1.692409634590149,1.9419068098068237,-1.3772897720336914,-0.8460533022880554,0.6171640157699585,0.07172386348247528,0.34535932540893555,-0.4528225064277649,0.7857532501220703,0.7303344011306763,1.7693535089492798,-1.2697049379348755,0.8128702640533447,1.1993776559829712,0.742440938949585,-2.280864715576172,0.04965488612651825,0.6112377047538757,-1.090937852859497,1.511300802230835,0.4429832100868225,-0.18115760385990143,4.440776824951172,0.762263298034668,0.5131191611289978,-0.502414882183075
SAMPLE_0004,-0.941428542137146,2.794191598892212,-0.4498917758464813,0.13109058141708374,0.10372831672430038,-0.3202086091041565,1.0400514602661133,0.5228053331375122,-0.10580192506313324,0.3202247619628906,0.40359458327293396,-0.2285584956407547,1.0691550970077515,0.49755579233169556,0.3038283586502075,2.38851261138916,0.09289651364088058,0.3453393876552582,-0.7026768326759338,0.8614227771759033,0.32707738876342773,0.6203426122665405,0.9492194056510925,0.2156912088394165,0.41892707347869873,3.067992687225342,0.21576310694217682,-0.5483397841453552,1.799668312072754,0.28735604882240295,0.8743210434913635,0.8342047333717346,0.8464693427085876,0.46667689085006714,-0.04748028144240379,0.6153510212898254,1.5386924743652344,1.4388160705566406,0.21771694719791412,0.5696995258331299,-0.7713713049888611,0.11875700950622559,1.1986606121063232,1.170540452003479,1.9597035646438599,0.8280566930770874,1.0198286771774292,-1.0029836893081665,2.103286027908325,0.2610255777835846,2.484135389328003,-0.30359041690826416,0.3555634319782257,-0.252675324678421,0.8087172508239746,1.161824345588684,1.5376720428466797,1.3787193298339844,-0.09607698768377304,0.7274993062019348,2.9080960750579834,2.911477565765381,-1.5545574426651,2.594254493713379,1.5801093578338623,3.3696324825286865,0.0011576543329283595,0.32223325967788696,2.8252224922180176,0.6834999322891235,0.06219950690865517,1.953582763671875,-0.9759387373924255,1.6093443632125854,1.5471798181533813,0.5206916332244873,1.5788354873657227,0.1831502616405487,1.162007451057434,0.08577658981084824,-1.381452202796936,1.2875133752822876,0.09417968988418579,1.4794191122055054,2.244528293609619,1.640499234199524,-0.5902923941612244,0.3101171851158142,-0.18326103687286377,-0.37293022871017456,1.2507413625717163,-0.37750065326690674,2.060096025466919,0.07689882814884186,0.18559995293617249,0.4345319867134094,1.0344351530075073,1.2844510078430176,1.7798078060150146,0.7438542246818542,-1.0208274126052856,0.6858323216438293,0.9347702264785767,1.081073522567749,0.31359636783599854,0.3094489276409149,-0.6494280099868774,0.18866407871246338,2.448676586151123,1.520715594291687,0.8843069076538086,1.2372441291809082,0.45144492387771606,1.6422991752624512,1.1677223443984985,1.1467275619506836,2.4257705211639404,1.0959974527359009,2.4919939041137695,1.0967662334442139,-0.536215603351593,-0.6879095435142517,3.383291006088257,1.7218265533447266,1.3963600397109985,2.5857746601104736,1.3092657327651978,2.227465867996216,0.6412168741226196,1.0012270212173462,-0.7520231604576111,0.08348005264997482,0.23801341652870178,0.42464539408683777,-0.7246359586715698,-1.9332139492034912,1.002107858657837,1.341226577758789,0.5257902145385742,0.7303444743156433,0.4542728662490845,1.0014580488204956,0.25950726866722107,0.9060760736465454,0.2807730436325073,1.357003092765808,-0.7733266949653625,1.542173147201538,-0.865822970867157,0.03879987820982933,1.481420636177063,-0.13598275184631348,1.8943349123001099,1.4388140439987183,1.613208532333374,1.823009729385376,0.7849269509315491,-0.028811125084757805,0.8584764003753662,3.6389596462249756,-0.367491215467453,1.1184254884719849,-0.40684351325035095,1.9215387105941772,-0.9711278080940247,0.7521281838417053,-0.29542502760887146,0.731401264667511,-0.13713887333869934,0.821029007434845,0.2509067952632904,0.19856344163417816,-0.14623475074768066,3.748748779296875,1.5680816173553467,-0.2972491681575775,1.9257956743240356,-0.8562241196632385,0.019794870167970657,1.3704109191894531,-0.26616930961608887,1.089130163192749,0.33545276522636414,0.8866674900054932,-1.0455514192581177,-1.1265151500701904,-1.3247308731079102,1.558410882949829,1.7971141338348389,-0.7696537971496582,1.1049671173095703,1.2312709093093872,-0.19337011873722076,0.6510503888130188,-0.6244954466819763,0.2968718409538269,0.8742653727531433,1.6968486309051514,1.3606215715408325,1.3246402740478516,0.9826821088790894,-0.9355285167694092,0.0535975806415081,1.270290493965149,2.38370943069458,0.39546167850494385,-0.5801402926445007,1.164442539215088,0.7684940099716187,1.4324651956558228,-0.3497542440891266,1.2334754467010498,0.8867248892784119,0.478832483291626,-0.5332626700401306,1.1002517938613892,2.203360080718994,2.3072519302368164,-1.3069884777069092,0.10183781385421753,1.1405467987060547,1.7152893543243408,1.524189829826355,0.7757819890975952,2.044811725616455,-0.6852576732635498,-0.468784898519516,-0.46740540862083435,1.301888108253479,1.2211718559265137,3.4257097244262695,0.31847190856933594,-0.12588024139404297,0.6479160189628601,-0.7194291949272156,0.28151556849479675,1.4016090631484985,0.5533701181411743,1.8639819622039795,0.6718990802764893,0.8850200772285461,-0.2867085933685303,1.0085736513137817,2.15168833732605,0.49568939208984375,-0.22647622227668762,2.7293026447296143,1.888619065284729,0.8992547988891602,2.100245237350464,0.16488896310329437,-0.10225038975477219,-1.3132113218307495,0.29303449392318726,1.083634614944458,-0.23081599175930023,2.7182750701904297,0.5278986692428589,-1.300241231918335,1.2789769172668457,2.4981653690338135,0.622685432434082,1.0553652048110962,1.512547492980957,0.21756470203399658,0.8475199341773987,0.5986992716789246,1.0447300672531128,1.2518643140792847,2.135937452316284,1.6093693971633911,-0.5849271416664124,0.05197734013199806,2.5732035636901855,-0.7622149586677551,-0.8089738488197327,-0.4879755675792694,2.9545366764068604,1.0332180261611938,-0.17820757627487183,-0.7784486413002014,0.5422205924987793,0.03762797266244888,-0.1980530023574829,0.4102784991264343,-0.46485188603401184,0.5598664283752441,0.9595745205879211,-0.12827202677726746,1.4129719734191895,-0.1932336986064911,-1.4696851968765259,-0.6056400537490845,1.4694956541061401,1.3103811740875244,-1.6551783084869385,0.581400454044342,0.5951588153839111,-0.5807470679283142,-0.22343942523002625,0.9128608703613281,-0.12045007199048996,0.9509763717651367,1.3578009605407715,0.8952564001083374,1.9316669702529907,-0.7194516062736511,-2.2054431438446045,-0.8411300182342529,3.5183005332946777,1.8345415592193604,-0.059131085872650146,1.1313179731369019,0.47365134954452515,1.0848989486694336,-0.2860596179962158,0.955455482006073,1.7393487691879272,0.12593123316764832,1.9197814464569092,1.081709861755371,0.3735116124153137,-1.2133466005325317,2.3240573406219482,1.0577565431594849,1.3638626337051392,-0.2973487079143524,0.7497908473014832,-1.5316390991210938,-0.4034065306186676,1.1423956155776978,-1.457031488418579,2.234126567840576,-0.6727311015129089,1.005120873451233,0.0389024093747139,-0.01709696091711521,0.7090784311294556,1.5928130149841309,3.607905387878418,-1.05087411403656,0.4396696388721466,2.698765993118286,1.6293920278549194,-2.2588584423065186,-1.3288050889968872,1.681117057800293,-0.7393544912338257,2.090794563293457,2.1086268424987793,0.49721628427505493,0.14488177001476288,1.8554869890213013,2.6043689250946045,2.812457323074341,-1.5585993528366089,1.7926015853881836,2.7468574047088623,-0.8978208303451538,4.44835090637207,0.08699318021535873,-0.2816435694694519,0.9755913019180298,0.5418525338172913,-0.7008357644081116,2.473823308944702,0.8663588166236877,2.314974308013916,0.5510367155075073,1.254477858543396,1.4418102502822876,0.21030770242214203,2.6141395568847656,-0.7506370544433594,0.3372402787208557,1.5980006456375122,0.11501236259937286,-0.3799709379673004,-0.5565794706344604,0.7572420239448547,0.665890097618103,-0.5917722582817078,1.9758647680282593,2.1414451599121094,0.2761136591434479,-0.15569473803043365,1.085054874420166,-0.007196891121566296,1.6470469236373901,1.0456490516662598,2.248502492904663,-0.6122211217880249,2.5033867359161377,1.6764603853225708,2.3173677921295166,0.3573637008666992,0.18422487378120422,0.14130361378192902,0.9383942484855652,-0.7372771501541138,5.375629425048828,-1.5236713886260986,1.7742856740951538,-0.15185202658176422,-0.010707045905292034,0.41021308302879333,1.6121108531951904,0.8233290314674377,1.4075233936309814,-0.5008183717727661,-1.1679658889770508,-0.8345291614532471,-0.669353187084198,1.8188650608062744,0.7797462940216064,0.052758049219846725,0.3233776092529297,-0.42676785588264465,-0.1960563361644745,0.08704353868961334,1.5056263208389282,0.376840204000473,-0.5845544934272766,1.0990785360336304,0.5542973279953003,0.18851523101329803,-0.0759807750582695,2.284496545791626,1.4643481969833374,0.25396060943603516,0.77237468957901,-1.6118650436401367,-0.4627948999404907,-0.9406066536903381,0.23747490346431732,1.116047978401184,1.2161948680877686,-1.835300326347351,2.2524709701538086,-1.1586267948150635,-0.10792936384677887,0.6028003692626953,-1.3199719190597534,-1.5644949674606323,1.857997179031372,2.4622981548309326,0.09752656519412994,-0.4127878248691559,0.5409429669380188,-0.35111525654792786,0.232795849442482,0.6973647475242615,-0.3879391849040985,0.1660711020231247,1.756786823272705,1.1227370500564575,-0.5680049657821655,0.3031948208808899,-0.3151266872882843,-1.727878451347351,-0.6577078104019165,0.4869673550128937,2.3573856353759766,2.0118489265441895,-0.5579953193664551,3.5114758014678955,0.3723584711551666,0.9410370588302612,-0.23863095045089722,1.8727163076400757,-0.18506519496440887,2.2470500469207764,0.07741671800613403,0.6861339807510376,2.1758604049682617,-0.22809651494026184,0.5742415189743042,0.7421549558639526,3.2166528701782227,-0.4132843017578125,0.20496037602424622,-0.47741013765335083,2.28849720954895,-0.06091728061437607,1.138335108757019,0.6404510736465454,1.1929067373275757,0.7545269727706909,0.2619656026363373,1.1895135641098022,-0.3430839776992798,-0.7244189381599426,0.491131454706192,0.09631134569644928,0.3380023241043091,-0.46220237016677856,-1.0228990316390991,0.19245661795139313,-0.04431726410984993,1.487552285194397,1.574302077293396,1.0184568166732788,0.5229710936546326,0.9409434199333191,0.9289597272872925,1.121279239654541,0.022595742717385292,0.1587296426296234,-0.971979558467865,-1.2653486728668213,0.4743133783340454,0.2215433567762375,-0.29649823904037476,0.773291826248169,0.8244417905807495,0.856951117515564,-1.6271932125091553,1.0673887729644775,-0.48007383942604065,3.6743836402893066,0.6538079380989075,-0.8756271600723267,0.9078794717788696,1.1178171634674072,0.6606693267822266,1.773029088973999,1.7340385913848877,0.7500926852226257,2.580317974090576,-1.8984246253967285,-1.4562469720840454,0.8229822516441345,-0.16535289585590363,-0.3144211173057556,-1.4960851669311523,0.10358528792858124,-0.665346086025238,0.5192927122116089,0.6208327412605286,0.5839821100234985,0.5841335654258728,-1.1800098419189453,-1.0912058353424072,-0.20053869485855103,-0.2961079478263855,0.03786380589008331,2.156386137008667,-0.7675604224205017,-0.4374121129512787,-0.10714997351169586,-0.7037017345428467,1.867666482925415,0.6821156144142151,-0.04435412213206291,-0.40909022092819214,0.708450436592102,0.3905476927757263,-1.2835783958435059,0.599740743637085,0.9758087396621704,0.1358104795217514,1.2053526639938354,-0.1405763328075409,1.457275629043579,0.7108866572380066,0.2310018539428711,0.7064791321754456,1.7815890312194824,-0.5941690802574158,-0.9778763651847839,-0.2622123658657074,-0.06150427088141441,-0.8173050880432129,-0.11022835969924927,-1.1213058233261108,2.291834592819214,0.9983245134353638,1.3701658248901367,-0.08401691168546677,2.8458995819091797,1.0431983470916748,0.9355106949806213,2.752887725830078,1.3194183111190796,0.4373610019683838,0.583261251449585,0.512363076210022,0.21595950424671173,-0.40507325530052185,-0.2673538327217102,1.5910351276397705,1.0759589672088623,0.7718865275382996,1.158782720565796,-0.16795481741428375,0.25637978315353394,0.08239913731813431,2.940274477005005,-0.04118313267827034,0.7336186766624451,-0.324729323387146,-0.6190930008888245,-0.1692802906036377,-0.5956181883811951,-0.4378891885280609,-0.8260114789009094,2.044750213623047,0.8444151282310486,-0.4270790219306946,-0.7248044610023499,-0.06511141359806061,0.22573725879192352,0.758654773235321,-0.006917275488376617,0.9897975325584412,-0.1274930238723755,0.4218284785747528,-0.5501340627670288,1.5782842636108398,-0.3688162863254547,1.232495665550232,-0.6172530651092529,1.1059173345565796,0.013398482464253902,0.01849406585097313,-1.2708613872528076,0.13180042803287506,0.6089450120925903,1.9315931797027588,0.08400574326515198,1.7017617225646973,-0.9469606280326843,-1.1782151460647583,0.5098260641098022,5.31423807144165,0.9296091198921204,2.0477209091186523,0.34959876537323,-0.1765994429588318,-0.5315167307853699,0.9277255535125732,0.5744718909263611,0.6214511394500732,1.8552803993225098,0.7010288834571838,1.0552831888198853,0.8101809620857239,2.275151014328003,-1.2508273124694824,0.1760038584470749,0.23548199236392975,0.6156964898109436,0.4126895070075989,1.1859824657440186,2.273264169692993,1.1427181959152222,-0.24317927658557892,0.7474220991134644,1.8037397861480713,2.338045835494995,1.7359496355056763,-0.8319955468177795,1.5834341049194336,-0.2679392695426941,-0.16077618300914764,1.7805999517440796,0.3609808683395386,1.0988785028457642,1.0992740392684937,1.019351840019226,0.09546773880720139,1.4006892442703247,-0.3800463378429413,1.293959379196167,-1.334047794342041,-0.9746341109275818,-2.3175463676452637,-0.24267013370990753,0.3906943202018738,1.5558563470840454,-0.7394914031028748,0.7343062162399292,2.4231948852539062,0.8094784021377563,1.83110511302948,-0.4540574550628662,0.3042476177215576,-3.1789724826812744,-0.021550506353378296,-0.18372131884098053,3.212094783782959,2.1639692783355713,-0.7103378176689148,1.5787996053695679,0.8225128650665283,2.281877040863037,-2.1143105030059814,1.6437746286392212,0.5046358704566956,1.0752735137939453,0.7192558646202087,0.6411261558532715,0.00885259173810482,0.39983052015304565,0.20000587403774261,1.4245405197143555,-1.1939364671707153,0.7277883291244507,0.627555787563324,2.295468807220459,0.34287726879119873,1.5140143632888794,0.9679455757141113,2.5129129886627197,0.1987900584936142,1.5275371074676514,0.29591506719589233,1.7652794122695923,1.0101088285446167,2.1605851650238037,1.9187020063400269,0.54837965965271,-0.914395272731781,1.3928245306015015,1.3850241899490356,0.9783354997634888,2.3891870975494385,0.23841486871242523,0.96302729845047,1.2977451086044312,-0.8143869638442993,0.3150138556957245,2.4766898155212402,1.7093791961669922,-0.8971458673477173,1.7510210275650024,1.6814031600952148,0.3512958288192749,0.21788030862808228,1.6425702571868896,2.187105417251587,-0.7462536692619324,1.2980836629867554,1.8756341934204102,-0.9789398312568665,-0.8604360818862915,0.6317469477653503,-0.0844067856669426,0.3726593554019928,0.004484535660594702,1.01535964012146,1.10309898853302,2.0052292346954346,-0.7173059582710266,0.6737009882926941,1.5114349126815796,1.3719764947891235,-2.139813184738159,0.26150962710380554,0.7121582627296448,-0.9089270830154419,1.4956532716751099,0.3165702521800995,0.009745193645358086,4.165018558502197,1.1075308322906494,0.34529203176498413,-0.48807692527770996
SAMPLE_0005,-1.0840342044830322,2.309011697769165,-0.5175220966339111,0.40275776386260986,0.14746782183647156,-0.6732888221740723,0.819094717502594,0.9177933931350708,0.11630143225193024,0.39349791407585144,0.468675434589386,-0.6061157584190369,1.2784651517868042,0.8308017253875732,0.5789892077445984,2.0900487899780273,0.7171854972839355,0.3603835701942444,-0.35430335998535156,0.9100643992424011,0.05780896544456482,0.5396773815155029,0.9266312718391418,0.5885582566261292,0.2720423638820648,2.969928503036499,-0.12364786863327026,-0.9847539663314819,1.6090246438980103,0.09276822209358215,0.9000677466392517,0.8478183746337891,0.8242590427398682,0.4035581052303314,0.15759624540805817,0.9934439063072205,1.1342198848724365,1.5585253238677979,0.9625440835952759,0.9405186176300049,-0.820747971534729,0.33498474955558777,1.4820362329483032,1.2176625728607178,1.979236125946045,0.9954859018325806,0.8898271322250366,-0.6994012594223022,1.853532314300537,0.43570443987846375,2.190363883972168,-0.17142799496650696,-0.06482364237308502,-0.6840819716453552,0.686432421207428,1.2734533548355103,1.2828305959701538,1.4944798946380615,-0.07122397422790527,0.2037687450647354,2.7456347942352295,2.776211977005005,-1.239113688468933,2.369293689727783,1.374269962310791,3.3071343898773193,-0.17429950833320618,0.338771790266037,2.575916290283203,0.5350305438041687,0.05116863176226616,1.8005123138427734,-0.931490421295166,1.363716721534729,1.5447733402252197,0.7387987375259399,1.2139513492584229,0.07388255000114441,1.460358738899231,-0.40827226638793945,-1.3358756303787231,1.1350276470184326,0.33647483587265015,1.5640610456466675,1.9421521425247192,1.5654044151306152,-0.5387144684791565,0.055862993001937866,-0.2512299716472626,-0.36282944679260254,1.0971685647964478,-0.17655031383037567,2.288274049758911,0.007115034386515617,0.2802528142929077,0.39392367005348206,1.3519706726074219,1.1677989959716797,1.2621196508407593,0.475367933511734,-0.8850696682929993,0.6260742545127869,1.056645393371582,1.277016520500183,0.28282400965690613,-0.3461078405380249,-0.2521783113479614,-0.012091808952391148,2.4702091217041016,1.4306339025497437,1.122444987297058,1.4678840637207031,0.31369292736053467,1.715127944946289,1.3942893743515015,0.7455090880393982,1.8221970796585083,1.1509345769882202,2.6790454387664795,1.0092320442199707,-0.6870710253715515,-0.26422202587127686,3.632120132446289,1.1814502477645874,1.4334449768066406,2.3708813190460205,1.2720224857330322,1.7346867322921753,0.6116797924041748,1.0957260131835938,-0.706754744052887,-0.4679704010486603,0.030059445649385452,0.27432242035865784,-0.7520804405212402,-1.6081860065460205,1.1187363862991333,1.6267216205596924,0.6420974135398865,0.45290863513946533,0.28673720359802246,0.7984103560447693,-0.07228750735521317,1.2856978178024292,0.3338269293308258,1.3212649822235107,-0.41185101866722107,1.581473469734192,-0.8849701881408691,0.4150949716567993,1.7162010669708252,-0.0743258073925972,2.4224162101745605,1.5123592615127563,1.9460374116897583,1.9919672012329102,0.8672984838485718,0.11338718980550766,0.8521192073822021,3.473731756210327,-0.5257612466812134,1.282623291015625,-0.5051239132881165,2.183789014816284,-1.1140284538269043,1.1559607982635498,0.06589507311582565,0.34854355454444885,0.023416168987751007,1.424432635307312,0.5097870826721191,0.6917902231216431,-0.4045054018497467,3.757293462753296,1.4679889678955078,-0.3325955867767334,1.8781931400299072,-0.7726962566375732,0.185377299785614,1.6097081899642944,-0.13890057802200317,1.214270830154419,0.35550957918167114,1.01264226436615,-0.6998960375785828,-1.4068936109542847,-1.2008864879608154,1.5237566232681274,1.9590260982513428,-0.7844910025596619,1.0188171863555908,1.4838266372680664,0.0015720590017735958,0.5140992403030396,-0.3656673729419708,0.30406078696250916,1.3166996240615845,1.6269088983535767,1.105291724205017,1.2584491968154907,1.1496005058288574,-0.7873472571372986,-0.6921192407608032,0.9912318587303162,1.9807631969451904,0.3698277771472931,-0.5691846609115601,1.0032613277435303,0.4090675413608551,1.6713509559631348,-0.2213788628578186,1.1648482084274292,1.0338091850280762,0.2615172863006592,-0.787525475025177,1.1122145652770996,2.382488250732422,2.172419548034668,-0.9736037254333496,-0.04278755560517311,1.2090880870819092,1.602158546447754,1.1159334182739258,1.1939966678619385,2.3152613639831543,-0.4041599929332733,-0.36150822043418884,-0.6312339901924133,1.3868740797042847,1.1102375984191895,3.408360004425049,0.15225522220134735,0.08339603245258331,0.8770620226860046,-0.5315072536468506,0.11951886862516403,1.2629302740097046,0.13643313944339752,1.8245985507965088,0.6136353015899658,1.0321202278137207,-0.6051157712936401,1.1700098514556885,1.991746425628662,0.5284910798072815,-0.349340558052063,1.9769927263259888,1.985761284828186,1.1243993043899536,2.1738340854644775,-0.44641345739364624,0.15404629707336426,-1.1272146701812744,0.3928695023059845,1.3262509107589722,0.43032917380332947,3.0865654945373535,0.7396281361579895,-1.3077555894851685,1.286791443824768,2.360144853591919,0.5029380917549133,1.04617178440094,1.6048197746276855,0.1389434039592743,0.7600864768028259,0.7907675504684448,1.3173162937164307,1.3274974822998047,2.152095079421997,1.468537449836731,-0.6501061320304871,0.043757036328315735,2.1555368900299072,-0.5726226568222046,-0.8438345789909363,-0.3148326277732849,2.747000217437744,0.6755891442298889,0.3179355263710022,-0.7482115626335144,1.0939513444900513,-0.2443198263645172,0.1268816590309143,0.38695967197418213,0.06803807616233826,0.22844551503658295,0.8857218027114868,0.13204427063465118,1.1931548118591309,-0.10487818717956543,-1.8452917337417603,-0.27300453186035156,1.492699384689331,1.4931796789169312,-1.591658115386963,0.08204001188278198,0.47646844387054443,-0.5840244889259338,-0.31795206665992737,1.2763726711273193,0.048603158444166183,1.0130581855773926,1.5949758291244507,0.9785856008529663,1.7956211566925049,-0.3253130614757538,-2.1506996154785156,-1.001261830329895,3.7805733680725098,1.9690407514572144,-0.05390467867255211,0.8025152683258057,0.5933159589767456,0.9643739461898804,-0.024858508259058,0.7703637480735779,1.438881516456604,-0.10586702078580856,2.0880143642425537,1.3480379581451416,0.6699633598327637,-0.8575232028961182,2.664081573486328,1.010428547859192,1.033829689025879,-0.22340203821659088,0.9079453349113464,-1.638827919960022,-0.0623910054564476,0.7136354446411133,-1.186207890510559,2.260197401046753,-0.1967109590768814,0.6238242983818054,0.31762391328811646,-0.03946783393621445,0.6866632699966431,1.5112396478652954,3.6967804431915283,-1.6238071918487549,0.22010856866836548,2.6032297611236572,1.5176959037780762,-2.382207155227661,-1.8151928186416626,2.014244556427002,-1.21234130859375,2.238666534423828,2.090080976486206,0.6966457962989807,-0.1257321685552597,1.7241045236587524,2.3942103385925293,3.0615429878234863,-1.4675425291061401,1.5601518154144287,2.844383716583252,-0.9547383785247803,3.9805357456207275,0.16866877675056458,-0.06813426315784454,0.8343834280967712,0.8596332669258118,-0.5127939581871033,2.12283992767334,0.7467171549797058,2.2023963928222656,0.7652950286865234,1.6806851625442505,1.3381032943725586,0.43878173828125,2.6496615409851074,-0.7543615102767944,0.8775733113288879,2.0380167961120605,0.3934914767742157,0.22108124196529388,-0.6987006068229675,0.6068931221961975,0.7622470855712891,-0.7068777680397034,1.797351598739624,2.190830945968628,0.022727398201823235,-0.018177129328250885,1.0268845558166504,-0.3717615306377411,1.460086703300476,1.5821901559829712,2.284759759902954,-0.9420334100723267,2.7181153297424316,1.3147172927856445,2.1646296977996826,0.3905869126319885,0.3414832353591919,-0.15703532099723816,0.7321600914001465,-0.5048072338104248,5.480783462524414,-1.5431722402572632,1.8669359683990479,0.19906090199947357,0.32964587211608887,0.8499025106430054,1.357786774635315,0.5015643835067749,1.5839498043060303,-0.8920983076095581,-1.0438671112060547,-0.8444462418556213,-0.7086126208305359,1.1215509176254272,1.1376084089279175,0.2116943895816803,0.3417893350124359,-0.47487872838974,-0.06838022917509079,0.4048193097114563,1.3318525552749634,0.4361667037010193,-0.24746547639369965,0.8405808806419373,0.05703780800104141,0.3507806062698364,0.2503800392150879,2.2214090824127197,1.5892618894577026,0.41293421387672424,0.5963122844696045,-1.312903881072998,-0.1661079078912735,-0.8172033429145813,0.5114666223526001,1.2181729078292847,1.493877649307251,-1.640981674194336,2.3693008422851562,-1.4819207191467285,-0.35287007689476013,0.5123674273490906,-1.103663444519043,-1.2618753910064697,1.6420085430145264,2.569525718688965,-0.1804078072309494,-0.5695646405220032,0.45857012271881104,-0.06766688078641891,-0.05657006427645683,0.8107160329818726,-0.10738009959459305,0.32778334617614746,1.877665638923645,1.4383838176727295,-0.29033777117729187,-0.02166374772787094,-0.22762654721736908,-2.2708473205566406,-0.5276444554328918,0.5101161003112793,2.579739570617676,2.0946383476257324,-0.9516116976737976,3.7620809078216553,0.4202286899089813,0.9811277389526367,-0.2775125205516815,1.9223926067352295,-0.1993522047996521,2.5212650299072266,-0.08310846239328384,0.6428048014640808,2.2762303352355957,-0.2633439302444458,0.6760050654411316,0.7560140490531921,2.8384921550750732,-0.4724511206150055,-0.033660177141427994,-0.7722645401954651,2.2888271808624268,-0.13815706968307495,1.325923204421997,0.21807760000228882,1.3010482788085938,0.3777656853199005,0.36144572496414185,0.8318467140197754,-0.231471985578537,-0.9867424964904785,0.5277705192565918,0.48056912422180176,0.5859429836273193,-0.3415408432483673,-0.7594018578529358,0.4007101356983185,-0.3763197362422943,1.515100121498108,2.013585329055786,0.8461562991142273,0.13731738924980164,1.0164520740509033,0.8411032557487488,0.8822983503341675,-0.08969458192586899,0.33154985308647156,-0.8749342560768127,-1.774491548538208,0.33820652961730957,0.2339932918548584,-0.08398466557264328,0.7961256504058838,0.8045361638069153,0.8475006222724915,-1.4892559051513672,0.934596836566925,-0.3670334815979004,3.313084840774536,0.6523761749267578,-0.7234755158424377,0.8447943925857544,1.3707135915756226,0.6069254875183105,1.7832492589950562,1.6222342252731323,0.8050118684768677,2.3990674018859863,-1.664800763130188,-1.5255688428878784,0.9748943448066711,-0.012697751633822918,-0.4672628939151764,-1.717685341835022,0.03085675835609436,-1.2666301727294922,0.2700718641281128,0.40229862928390503,0.5750008821487427,0.7165506482124329,-1.2517067193984985,-1.3182941675186157,0.08648358285427094,-0.2889505624771118,-0.16395170986652374,2.051579713821411,-0.7228331565856934,-0.0932350754737854,0.1835961937904358,-0.5791504383087158,1.8280731439590454,0.715782642364502,0.06492479145526886,-0.29249995946884155,0.37829098105430603,0.4614180028438568,-1.3619827032089233,0.5135485529899597,1.0675346851348877,-0.39682629704475403,1.4156146049499512,0.08297379314899445,1.491660714149475,0.7174251079559326,0.6134878993034363,0.6185555458068848,1.6918436288833618,-0.7923753261566162,-1.0823819637298584,-0.46445947885513306,-0.3772623538970947,-0.7055883407592773,-0.14508666098117828,-0.8698099851608276,2.3336548805236816,0.542646050453186,1.0599950551986694,0.07611789554357529,2.4717626571655273,1.370345115661621,0.34643304347991943,2.5967843532562256,1.0297685861587524,0.3484571576118469,1.0397130250930786,0.48220786452293396,0.042281802743673325,-0.5147039890289307,-0.37479323148727417,1.4372493028640747,1.467573881149292,0.6034976840019226,1.6092541217803955,0.14972542226314545,0.3602604568004608,0.09027338773012161,2.4560248851776123,0.00032088751322589815,0.5927428007125854,-0.42630523443222046,-0.6701981425285339,-0.14348594844341278,-1.224626064300537,-0.25329676270484924,-0.5941123962402344,2.377636671066284,0.8253450393676758,-0.09554626792669296,-0.45691969990730286,0.15506932139396667,0.05388820543885231,0.685809314250946,0.03652658686041832,0.8692818880081177,-0.14020760357379913,0.38242998719215393,-0.9580249786376953,1.772388219833374,-0.18845166265964508,1.8091082572937012,-0.7256870865821838,1.4743247032165527,-0.36098259687423706,-0.09408930689096451,-0.9339484572410583,0.17177855968475342,0.28146910667419434,1.5207589864730835,0.6728287935256958,1.3545217514038086,-0.9564974904060364,-1.0294058322906494,0.28333157300949097,5.593273639678955,1.1430308818817139,2.235605239868164,0.5017607808113098,0.03248630464076996,-0.3018747866153717,0.9248740077018738,0.6451175808906555,0.32461684942245483,1.8626432418823242,0.7697563767433167,0.9683721661567688,0.804155170917511,2.3595075607299805,-0.7572646737098694,-0.020195363089442253,0.12587815523147583,0.4988614618778229,0.09764634817838669,1.1405671834945679,2.5207574367523193,0.7411558032035828,-0.3840673863887787,0.7359974980354309,2.0461909770965576,2.2376821041107178,1.8842130899429321,-0.521259069442749,1.7889912128448486,-0.24529297649860382,-0.089058056473732,1.3613321781158447,0.2338331937789917,1.1323065757751465,0.5706272125244141,0.9944406747817993,0.05342017114162445,1.2155121564865112,-0.7449324131011963,0.9921983480453491,-1.5679795742034912,-1.2368316650390625,-1.9179580211639404,-0.08926902711391449,0.06882649660110474,1.5131993293762207,-0.5037733912467957,1.069695234298706,2.0927202701568604,0.9320952296257019,1.7578353881835938,-0.8987574577331543,0.11888999491930008,-2.888357400894165,0.08359596133232117,-0.6159926056861877,2.963346242904663,1.916147232055664,-1.083555817604065,1.2357043027877808,0.8448856472969055,2.2379629611968994,-1.65178382396698,1.4550330638885498,0.4892628788948059,0.47122785449028015,0.7236948609352112,0.5037357211112976,-0.032106492668390274,0.6045538187026978,0.18799975514411926,1.3369793891906738,-0.8777261972427368,0.6288406848907471,0.33993884921073914,2.01107120513916,0.2847152650356293,1.4534926414489746,1.024401307106018,2.6822521686553955,-0.07375852018594742,1.5082308053970337,0.33631303906440735,1.726793646812439,0.7115873694419861,2.284668445587158,1.6996098756790161,0.5087924003601074,-1.016955852508545,1.1769853830337524,1.7535480260849,1.0031123161315918,2.4588403701782227,0.39896970987319946,1.2214181423187256,1.4209904670715332,-0.6627644896507263,0.562605619430542,2.5975184440612793,1.8661280870437622,-1.222307801246643,1.4791314601898193,1.6331169605255127,0.3072154223918915,0.08623553067445755,1.2013458013534546,2.2477171421051025,-0.5371344685554504,1.3709526062011719,1.926149845123291,-1.291192889213562,-0.6022664904594421,0.6129796504974365,0.17229247093200684,0.5692676305770874,-0.18188956379890442,0.900752604007721,0.7762506604194641,1.4845778942108154,-1.3693801164627075,0.8741397857666016,0.9698445796966553,1.1686770915985107,-2.272564172744751,0.41451939940452576,0.8546448945999146,-0.6270199418067932,1.4939992427825928,0.4995192587375641,-0.4786823093891144,4.846382141113281,1.0363744497299194,0.6844534873962402,-0.4319010376930237
